digraph Tree {
node [shape=box, style="filled, rounded", color="black", fontname=helvetica] ;
edge [fontname=helvetica] ;
0 [label=<Age_L &le; 19.5<br/>entropy = 1.0<br/>samples = 20000<br/>value = [10000, 10000]<br/>class = No Repair/Reconstruction>, fillcolor="#e5813900"] ;
1 [label=<Baseline Difference Score &le; -0.34<br/>entropy = 0.854<br/>samples = 5287<br/>value = [3814, 1473]<br/>class = No Repair/Reconstruction>, fillcolor="#e581399d"] ;
0 -> 1 [labeldistance=2.5, labelangle=45, headlabel="True"] ;
2 [label=<Avg. Daily Precipitation &le; 3.145<br/>entropy = 0.982<br/>samples = 1978<br/>value = [1147, 831]<br/>class = No Repair/Reconstruction>, fillcolor="#e5813946"] ;
1 -> 2 ;
3 [label=<entropy = 1.0<br/>samples = 1292<br/>value = [661, 631]<br/>class = No Repair/Reconstruction>, fillcolor="#e581390c"] ;
2 -> 3 ;
4 [label=<entropy = 0.871<br/>samples = 686<br/>value = [486, 200]<br/>class = No Repair/Reconstruction>, fillcolor="#e5813996"] ;
2 -> 4 ;
5 [label=<Age_L &le; 0.5<br/>entropy = 0.71<br/>samples = 3309<br/>value = [2667, 642]<br/>class = No Repair/Reconstruction>, fillcolor="#e58139c2"] ;
1 -> 5 ;
6 [label=<entropy = 0.863<br/>samples = 119<br/>value = [34, 85]<br/>class = Repair/Reconstruction>, fillcolor="#399de599"] ;
5 -> 6 ;
7 [label=<entropy = 0.668<br/>samples = 3190<br/>value = [2633, 557]<br/>class = No Repair/Reconstruction>, fillcolor="#e58139c9"] ;
5 -> 7 ;
8 [label=<Baseline Difference Score &le; -0.254<br/>entropy = 0.982<br/>samples = 14713<br/>value = [6186, 8527]<br/>class = Repair/Reconstruction>, fillcolor="#399de546"] ;
0 -> 8 [labeldistance=2.5, labelangle=-45, headlabel="False"] ;
9 [label=<Baseline Difference Score &le; -2.39<br/>entropy = 0.998<br/>samples = 4982<br/>value = [2622, 2360]<br/>class = No Repair/Reconstruction>, fillcolor="#e5813919"] ;
8 -> 9 ;
10 [label=<entropy = 0.694<br/>samples = 300<br/>value = [244, 56]<br/>class = No Repair/Reconstruction>, fillcolor="#e58139c4"] ;
9 -> 10 ;
11 [label=<entropy = 1.0<br/>samples = 4682<br/>value = [2378, 2304]<br/>class = No Repair/Reconstruction>, fillcolor="#e5813908"] ;
9 -> 11 ;
12 [label=<Baseline Difference Score &le; 1.055<br/>entropy = 0.948<br/>samples = 9731<br/>value = [3564, 6167]<br/>class = Repair/Reconstruction>, fillcolor="#399de56c"] ;
8 -> 12 ;
13 [label=<entropy = 0.973<br/>samples = 7292<br/>value = [2939, 4353]<br/>class = Repair/Reconstruction>, fillcolor="#399de553"] ;
12 -> 13 ;
14 [label=<entropy = 0.821<br/>samples = 2439<br/>value = [625, 1814]<br/>class = Repair/Reconstruction>, fillcolor="#399de5a7"] ;
12 -> 14 ;
}