digraph Tree {
node [shape=box, style="filled, rounded", color="black", fontname=helvetica] ;
edge [fontname=helvetica] ;
0 [label=<Age_L &le; 19.5<br/>entropy = 1.0<br/>samples = 20000<br/>value = [10000, 10000]<br/>class = No Repair/Reconstruction>, fillcolor="#e5813900"] ;
1 [label=<Baseline Difference Score &le; -0.34<br/>entropy = 0.856<br/>samples = 5262<br/>value = [3787, 1475]<br/>class = No Repair/Reconstruction>, fillcolor="#e581399c"] ;
0 -> 1 [labeldistance=2.5, labelangle=45, headlabel="True"] ;
2 [label=<Avg. Daily Precipitation &le; 2.975<br/>entropy = 0.984<br/>samples = 1956<br/>value = [1125, 831]<br/>class = No Repair/Reconstruction>, fillcolor="#e5813943"] ;
1 -> 2 ;
3 [label=<entropy = 1.0<br/>samples = 1140<br/>value = [571, 569]<br/>class = No Repair/Reconstruction>, fillcolor="#e5813901"] ;
2 -> 3 ;
4 [label=<entropy = 0.906<br/>samples = 816<br/>value = [554, 262]<br/>class = No Repair/Reconstruction>, fillcolor="#e5813986"] ;
2 -> 4 ;
5 [label=<Age_L &le; 0.5<br/>entropy = 0.711<br/>samples = 3306<br/>value = [2662, 644]<br/>class = No Repair/Reconstruction>, fillcolor="#e58139c1"] ;
1 -> 5 ;
6 [label=<entropy = 0.948<br/>samples = 131<br/>value = [48, 83]<br/>class = Repair/Reconstruction>, fillcolor="#399de56c"] ;
5 -> 6 ;
7 [label=<entropy = 0.673<br/>samples = 3175<br/>value = [2614, 561]<br/>class = No Repair/Reconstruction>, fillcolor="#e58139c8"] ;
5 -> 7 ;
8 [label=<Baseline Difference Score &le; 0.688<br/>entropy = 0.982<br/>samples = 14738<br/>value = [6213, 8525]<br/>class = Repair/Reconstruction>, fillcolor="#399de545"] ;
0 -> 8 [labeldistance=2.5, labelangle=-45, headlabel="False"] ;
9 [label=<Baseline Difference Score &le; -1.49<br/>entropy = 0.997<br/>samples = 10556<br/>value = [4914, 5642]<br/>class = Repair/Reconstruction>, fillcolor="#399de521"] ;
8 -> 9 ;
10 [label=<entropy = 0.915<br/>samples = 975<br/>value = [653, 322]<br/>class = No Repair/Reconstruction>, fillcolor="#e5813981"] ;
9 -> 10 ;
11 [label=<entropy = 0.991<br/>samples = 9581<br/>value = [4261, 5320]<br/>class = Repair/Reconstruction>, fillcolor="#399de533"] ;
9 -> 11 ;
12 [label=<Avg. Daily Precipitation &le; 2.295<br/>entropy = 0.894<br/>samples = 4182<br/>value = [1299, 2883]<br/>class = Repair/Reconstruction>, fillcolor="#399de58c"] ;
8 -> 12 ;
13 [label=<entropy = 1.0<br/>samples = 622<br/>value = [316, 306]<br/>class = No Repair/Reconstruction>, fillcolor="#e5813908"] ;
12 -> 13 ;
14 [label=<entropy = 0.85<br/>samples = 3560<br/>value = [983, 2577]<br/>class = Repair/Reconstruction>, fillcolor="#399de59e"] ;
12 -> 14 ;
}