digraph Tree {
node [shape=box, style="filled, rounded", color="black", fontname=helvetica] ;
edge [fontname=helvetica] ;
0 [label=<Age_L &le; 19.5<br/>entropy = 1.0<br/>samples = 20000<br/>value = [10000, 10000]<br/>class = No Repair/Reconstruction>, fillcolor="#e5813900"] ;
1 [label=<Baseline Difference Score &le; -0.377<br/>entropy = 0.84<br/>samples = 5219<br/>value = [3816, 1403]<br/>class = No Repair/Reconstruction>, fillcolor="#e58139a1"] ;
0 -> 1 [labeldistance=2.5, labelangle=45, headlabel="True"] ;
2 [label=<Avg. Daily Precipitation &le; 2.985<br/>entropy = 0.982<br/>samples = 1885<br/>value = [1092, 793]<br/>class = No Repair/Reconstruction>, fillcolor="#e5813946"] ;
1 -> 2 ;
3 [label=<entropy = 1.0<br/>samples = 1094<br/>value = [545, 549]<br/>class = Repair/Reconstruction>, fillcolor="#399de502"] ;
2 -> 3 ;
4 [label=<entropy = 0.891<br/>samples = 791<br/>value = [547, 244]<br/>class = No Repair/Reconstruction>, fillcolor="#e581398d"] ;
2 -> 4 ;
5 [label=<Age_L &le; 0.5<br/>entropy = 0.687<br/>samples = 3334<br/>value = [2724, 610]<br/>class = No Repair/Reconstruction>, fillcolor="#e58139c6"] ;
1 -> 5 ;
6 [label=<entropy = 0.94<br/>samples = 129<br/>value = [46, 83]<br/>class = Repair/Reconstruction>, fillcolor="#399de572"] ;
5 -> 6 ;
7 [label=<entropy = 0.645<br/>samples = 3205<br/>value = [2678, 527]<br/>class = No Repair/Reconstruction>, fillcolor="#e58139cd"] ;
5 -> 7 ;
8 [label=<Baseline Difference Score &le; 0.999<br/>entropy = 0.981<br/>samples = 14781<br/>value = [6184, 8597]<br/>class = Repair/Reconstruction>, fillcolor="#399de548"] ;
0 -> 8 [labeldistance=2.5, labelangle=-45, headlabel="False"] ;
9 [label=<Baseline Difference Score &le; -0.78<br/>entropy = 0.994<br/>samples = 12197<br/>value = [5560, 6637]<br/>class = Repair/Reconstruction>, fillcolor="#399de529"] ;
8 -> 9 ;
10 [label=<entropy = 0.984<br/>samples = 2781<br/>value = [1598, 1183]<br/>class = No Repair/Reconstruction>, fillcolor="#e5813942"] ;
9 -> 10 ;
11 [label=<entropy = 0.982<br/>samples = 9416<br/>value = [3962, 5454]<br/>class = Repair/Reconstruction>, fillcolor="#399de546"] ;
9 -> 11 ;
12 [label=<Avg. Daily Precipitation &le; 2.605<br/>entropy = 0.798<br/>samples = 2584<br/>value = [624, 1960]<br/>class = Repair/Reconstruction>, fillcolor="#399de5ae"] ;
8 -> 12 ;
13 [label=<entropy = 0.94<br/>samples = 681<br/>value = [243, 438]<br/>class = Repair/Reconstruction>, fillcolor="#399de572"] ;
12 -> 13 ;
14 [label=<entropy = 0.722<br/>samples = 1903<br/>value = [381, 1522]<br/>class = Repair/Reconstruction>, fillcolor="#399de5bf"] ;
12 -> 14 ;
}