digraph Tree {
node [shape=box, style="filled, rounded", color="black", fontname=helvetica] ;
edge [fontname=helvetica] ;
0 [label=<Intervention per year_of_bridge_survey &le; 0.046<br/>entropy = 0.997<br/>samples = 116702<br/>value = [62116, 54586]<br/>class = Bad>, fillcolor="#e581391f"] ;
1 [label=<Avg. Daily Precipitation &le; 2.305<br/>entropy = 0.996<br/>samples = 81980<br/>value = [37912, 44068]<br/>class = Good>, fillcolor="#399de524"] ;
0 -> 1 [labeldistance=2.5, labelangle=45, headlabel="True"] ;
2 [label=<Avg. Daily Precipitation &le; 1.185<br/>entropy = 0.929<br/>samples = 16972<br/>value = [5841, 11131]<br/>class = Good>, fillcolor="#399de579"] ;
1 -> 2 ;
3 [label=<entropy = 0.985<br/>samples = 2383<br/>value = [1362, 1021]<br/>class = Bad>, fillcolor="#e5813940"] ;
2 -> 3 ;
4 [label=<entropy = 0.89<br/>samples = 14589<br/>value = [4479, 10110]<br/>class = Good>, fillcolor="#399de58e"] ;
2 -> 4 ;
5 [label=<ADT_L &le; 120.5<br/>entropy = 1.0<br/>samples = 65008<br/>value = [32071, 32937]<br/>class = Good>, fillcolor="#399de507"] ;
1 -> 5 ;
6 [label=<entropy = 0.982<br/>samples = 24588<br/>value = [14215, 10373]<br/>class = Bad>, fillcolor="#e5813945"] ;
5 -> 6 ;
7 [label=<entropy = 0.99<br/>samples = 40420<br/>value = [17856, 22564]<br/>class = Good>, fillcolor="#399de535"] ;
5 -> 7 ;
8 [label=<ADT_L &le; 126.5<br/>entropy = 0.885<br/>samples = 34722<br/>value = [24204, 10518]<br/>class = Bad>, fillcolor="#e5813990"] ;
0 -> 8 [labeldistance=2.5, labelangle=-45, headlabel="False"] ;
9 [label=<Age_L &le; 23.5<br/>entropy = 0.701<br/>samples = 14597<br/>value = [11826, 2771]<br/>class = Bad>, fillcolor="#e58139c3"] ;
8 -> 9 ;
10 [label=<entropy = 0.379<br/>samples = 4635<br/>value = [4294, 341]<br/>class = Bad>, fillcolor="#e58139eb"] ;
9 -> 10 ;
11 [label=<entropy = 0.802<br/>samples = 9962<br/>value = [7532, 2430]<br/>class = Bad>, fillcolor="#e58139ad"] ;
9 -> 11 ;
12 [label=<Intervention per year_of_bridge_survey &le; 0.081<br/>entropy = 0.961<br/>samples = 20125<br/>value = [12378, 7747]<br/>class = Bad>, fillcolor="#e581395f"] ;
8 -> 12 ;
13 [label=<entropy = 0.996<br/>samples = 8620<br/>value = [4643, 3977]<br/>class = Bad>, fillcolor="#e5813925"] ;
12 -> 13 ;
14 [label=<entropy = 0.913<br/>samples = 11505<br/>value = [7735, 3770]<br/>class = Bad>, fillcolor="#e5813983"] ;
12 -> 14 ;
}