digraph Tree {
node [shape=box] ;
0 [label="X[0] <= 19.5\ngini = 0.064\nsamples = 450956\nvalue = [435954, 15002]"] ;
1 [label="X[0] <= 0.5\ngini = 0.025\nsamples = 168739\nvalue = [166560, 2179]"] ;
0 -> 1 [labeldistance=2.5, labelangle=45, headlabel="True"] ;
2 [label="X[1] <= 2.755\ngini = 0.121\nsamples = 3111\nvalue = [2910, 201]"] ;
1 -> 2 ;
3 [label="X[1] <= 2.205\ngini = 0.197\nsamples = 1546\nvalue = [1375, 171]"] ;
2 -> 3 ;
4 [label="X[1] <= 2.055\ngini = 0.03\nsamples = 732\nvalue = [721, 11]"] ;
3 -> 4 ;
5 [label="X[1] <= 1.545\ngini = 0.016\nsamples = 494\nvalue = [490, 4]"] ;
4 -> 5 ;
6 [label="gini = 0.0\nsamples = 168\nvalue = [168, 0]"] ;
5 -> 6 ;
7 [label="X[1] <= 1.555\ngini = 0.024\nsamples = 326\nvalue = [322, 4]"] ;
5 -> 7 ;
8 [label="gini = 0.375\nsamples = 4\nvalue = [3, 1]"] ;
7 -> 8 ;
9 [label="X[1] <= 1.885\ngini = 0.018\nsamples = 322\nvalue = [319, 3]"] ;
7 -> 9 ;
10 [label="X[1] <= 1.875\ngini = 0.029\nsamples = 207\nvalue = [204, 3]"] ;
9 -> 10 ;
11 [label="X[1] <= 1.64\ngini = 0.019\nsamples = 204\nvalue = [202, 2]"] ;
10 -> 11 ;
12 [label="X[1] <= 1.625\ngini = 0.045\nsamples = 43\nvalue = [42, 1]"] ;
11 -> 12 ;
13 [label="gini = 0.0\nsamples = 39\nvalue = [39, 0]"] ;
12 -> 13 ;
14 [label="gini = 0.375\nsamples = 4\nvalue = [3, 1]"] ;
12 -> 14 ;
15 [label="X[1] <= 1.815\ngini = 0.012\nsamples = 161\nvalue = [160, 1]"] ;
11 -> 15 ;
16 [label="gini = 0.0\nsamples = 108\nvalue = [108, 0]"] ;
15 -> 16 ;
17 [label="X[1] <= 1.825\ngini = 0.037\nsamples = 53\nvalue = [52, 1]"] ;
15 -> 17 ;
18 [label="gini = 0.219\nsamples = 8\nvalue = [7, 1]"] ;
17 -> 18 ;
19 [label="gini = 0.0\nsamples = 45\nvalue = [45, 0]"] ;
17 -> 19 ;
20 [label="gini = 0.444\nsamples = 3\nvalue = [2, 1]"] ;
10 -> 20 ;
21 [label="gini = 0.0\nsamples = 115\nvalue = [115, 0]"] ;
9 -> 21 ;
22 [label="X[1] <= 2.065\ngini = 0.057\nsamples = 238\nvalue = [231, 7]"] ;
4 -> 22 ;
23 [label="gini = 0.278\nsamples = 6\nvalue = [5, 1]"] ;
22 -> 23 ;
24 [label="X[1] <= 2.185\ngini = 0.05\nsamples = 232\nvalue = [226, 6]"] ;
22 -> 24 ;
25 [label="X[1] <= 2.115\ngini = 0.067\nsamples = 173\nvalue = [167, 6]"] ;
24 -> 25 ;
26 [label="gini = 0.0\nsamples = 38\nvalue = [38, 0]"] ;
25 -> 26 ;
27 [label="X[1] <= 2.145\ngini = 0.085\nsamples = 135\nvalue = [129, 6]"] ;
25 -> 27 ;
28 [label="X[1] <= 2.125\ngini = 0.136\nsamples = 41\nvalue = [38, 3]"] ;
27 -> 28 ;
29 [label="gini = 0.18\nsamples = 10\nvalue = [9, 1]"] ;
28 -> 29 ;
30 [label="X[1] <= 2.135\ngini = 0.121\nsamples = 31\nvalue = [29, 2]"] ;
28 -> 30 ;
31 [label="gini = 0.124\nsamples = 15\nvalue = [14, 1]"] ;
30 -> 31 ;
32 [label="gini = 0.117\nsamples = 16\nvalue = [15, 1]"] ;
30 -> 32 ;
33 [label="X[1] <= 2.175\ngini = 0.062\nsamples = 94\nvalue = [91, 3]"] ;
27 -> 33 ;
34 [label="gini = 0.0\nsamples = 30\nvalue = [30, 0]"] ;
33 -> 34 ;
35 [label="gini = 0.089\nsamples = 64\nvalue = [61, 3]"] ;
33 -> 35 ;
36 [label="gini = 0.0\nsamples = 59\nvalue = [59, 0]"] ;
24 -> 36 ;
37 [label="X[1] <= 2.405\ngini = 0.316\nsamples = 814\nvalue = [654, 160]"] ;
3 -> 37 ;
38 [label="X[1] <= 2.355\ngini = 0.393\nsamples = 369\nvalue = [270, 99]"] ;
37 -> 38 ;
39 [label="X[1] <= 2.325\ngini = 0.326\nsamples = 244\nvalue = [194, 50]"] ;
38 -> 39 ;
40 [label="X[1] <= 2.265\ngini = 0.357\nsamples = 202\nvalue = [155, 47]"] ;
39 -> 40 ;
41 [label="X[1] <= 2.245\ngini = 0.272\nsamples = 111\nvalue = [93, 18]"] ;
40 -> 41 ;
42 [label="X[1] <= 2.235\ngini = 0.386\nsamples = 69\nvalue = [51, 18]"] ;
41 -> 42 ;
43 [label="X[1] <= 2.225\ngini = 0.411\nsamples = 52\nvalue = [37, 15]"] ;
42 -> 43 ;
44 [label="X[1] <= 2.215\ngini = 0.334\nsamples = 33\nvalue = [26, 7]"] ;
43 -> 44 ;
45 [label="gini = 0.366\nsamples = 29\nvalue = [22, 7]"] ;
44 -> 45 ;
46 [label="gini = 0.0\nsamples = 4\nvalue = [4, 0]"] ;
44 -> 46 ;
47 [label="gini = 0.488\nsamples = 19\nvalue = [11, 8]"] ;
43 -> 47 ;
48 [label="gini = 0.291\nsamples = 17\nvalue = [14, 3]"] ;
42 -> 48 ;
49 [label="gini = 0.0\nsamples = 42\nvalue = [42, 0]"] ;
41 -> 49 ;
50 [label="X[1] <= 2.305\ngini = 0.434\nsamples = 91\nvalue = [62, 29]"] ;
40 -> 50 ;
51 [label="X[1] <= 2.295\ngini = 0.498\nsamples = 45\nvalue = [24, 21]"] ;
50 -> 51 ;
52 [label="X[1] <= 2.285\ngini = 0.5\nsamples = 28\nvalue = [14, 14]"] ;
51 -> 52 ;
53 [label="X[1] <= 2.275\ngini = 0.499\nsamples = 21\nvalue = [11, 10]"] ;
52 -> 53 ;
54 [label="gini = 0.498\nsamples = 15\nvalue = [8, 7]"] ;
53 -> 54 ;
55 [label="gini = 0.5\nsamples = 6\nvalue = [3, 3]"] ;
53 -> 55 ;
56 [label="gini = 0.49\nsamples = 7\nvalue = [3, 4]"] ;
52 -> 56 ;
57 [label="gini = 0.484\nsamples = 17\nvalue = [10, 7]"] ;
51 -> 57 ;
58 [label="X[1] <= 2.315\ngini = 0.287\nsamples = 46\nvalue = [38, 8]"] ;
50 -> 58 ;
59 [label="gini = 0.0\nsamples = 23\nvalue = [23, 0]"] ;
58 -> 59 ;
60 [label="gini = 0.454\nsamples = 23\nvalue = [15, 8]"] ;
58 -> 60 ;
61 [label="X[1] <= 2.335\ngini = 0.133\nsamples = 42\nvalue = [39, 3]"] ;
39 -> 61 ;
62 [label="gini = 0.1\nsamples = 19\nvalue = [18, 1]"] ;
61 -> 62 ;
63 [label="X[1] <= 2.345\ngini = 0.159\nsamples = 23\nvalue = [21, 2]"] ;
61 -> 63 ;
64 [label="gini = 0.278\nsamples = 6\nvalue = [5, 1]"] ;
63 -> 64 ;
65 [label="gini = 0.111\nsamples = 17\nvalue = [16, 1]"] ;
63 -> 65 ;
66 [label="X[1] <= 2.375\ngini = 0.477\nsamples = 125\nvalue = [76, 49]"] ;
38 -> 66 ;
67 [label="X[0] <= -0.5\ngini = 0.475\nsamples = 49\nvalue = [19, 30]"] ;
66 -> 67 ;
68 [label="gini = 0.0\nsamples = 1\nvalue = [1, 0]"] ;
67 -> 68 ;
69 [label="X[1] <= 2.365\ngini = 0.469\nsamples = 48\nvalue = [18, 30]"] ;
67 -> 69 ;
70 [label="gini = 0.46\nsamples = 39\nvalue = [14, 25]"] ;
69 -> 70 ;
71 [label="gini = 0.494\nsamples = 9\nvalue = [4, 5]"] ;
69 -> 71 ;
72 [label="X[1] <= 2.395\ngini = 0.375\nsamples = 76\nvalue = [57, 19]"] ;
66 -> 72 ;
73 [label="X[1] <= 2.385\ngini = 0.215\nsamples = 49\nvalue = [43, 6]"] ;
72 -> 73 ;
74 [label="gini = 0.328\nsamples = 29\nvalue = [23, 6]"] ;
73 -> 74 ;
75 [label="gini = 0.0\nsamples = 20\nvalue = [20, 0]"] ;
73 -> 75 ;
76 [label="gini = 0.499\nsamples = 27\nvalue = [14, 13]"] ;
72 -> 76 ;
77 [label="X[1] <= 2.745\ngini = 0.237\nsamples = 445\nvalue = [384, 61]"] ;
37 -> 77 ;
78 [label="X[1] <= 2.665\ngini = 0.221\nsamples = 426\nvalue = [372, 54]"] ;
77 -> 78 ;
79 [label="X[1] <= 2.445\ngini = 0.263\nsamples = 308\nvalue = [260, 48]"] ;
78 -> 79 ;
80 [label="X[1] <= 2.415\ngini = 0.038\nsamples = 51\nvalue = [50, 1]"] ;
79 -> 80 ;
81 [label="gini = 0.124\nsamples = 15\nvalue = [14, 1]"] ;
80 -> 81 ;
82 [label="gini = 0.0\nsamples = 36\nvalue = [36, 0]"] ;
80 -> 82 ;
83 [label="X[1] <= 2.465\ngini = 0.299\nsamples = 257\nvalue = [210, 47]"] ;
79 -> 83 ;
84 [label="X[1] <= 2.455\ngini = 0.454\nsamples = 46\nvalue = [30, 16]"] ;
83 -> 84 ;
85 [label="gini = 0.245\nsamples = 28\nvalue = [24, 4]"] ;
84 -> 85 ;
86 [label="X[0] <= -0.5\ngini = 0.444\nsamples = 18\nvalue = [6, 12]"] ;
84 -> 86 ;
87 [label="gini = 0.0\nsamples = 1\nvalue = [0, 1]"] ;
86 -> 87 ;
88 [label="gini = 0.457\nsamples = 17\nvalue = [6, 11]"] ;
86 -> 88 ;
89 [label="X[1] <= 2.515\ngini = 0.251\nsamples = 211\nvalue = [180, 31]"] ;
83 -> 89 ;
90 [label="X[1] <= 2.485\ngini = 0.104\nsamples = 73\nvalue = [69, 4]"] ;
89 -> 90 ;
91 [label="X[1] <= 2.475\ngini = 0.219\nsamples = 16\nvalue = [14, 2]"] ;
90 -> 91 ;
92 [label="gini = 0.0\nsamples = 3\nvalue = [3, 0]"] ;
91 -> 92 ;
93 [label="gini = 0.26\nsamples = 13\nvalue = [11, 2]"] ;
91 -> 93 ;
94 [label="X[1] <= 2.505\ngini = 0.068\nsamples = 57\nvalue = [55, 2]"] ;
90 -> 94 ;
95 [label="X[1] <= 2.495\ngini = 0.041\nsamples = 48\nvalue = [47, 1]"] ;
94 -> 95 ;
96 [label="gini = 0.056\nsamples = 35\nvalue = [34, 1]"] ;
95 -> 96 ;
97 [label="gini = 0.0\nsamples = 13\nvalue = [13, 0]"] ;
95 -> 97 ;
98 [label="gini = 0.198\nsamples = 9\nvalue = [8, 1]"] ;
94 -> 98 ;
99 [label="X[1] <= 2.525\ngini = 0.315\nsamples = 138\nvalue = [111, 27]"] ;
89 -> 99 ;
100 [label="gini = 0.32\nsamples = 5\nvalue = [1, 4]"] ;
99 -> 100 ;
101 [label="X[1] <= 2.545\ngini = 0.286\nsamples = 133\nvalue = [110, 23]"] ;
99 -> 101 ;
102 [label="gini = 0.0\nsamples = 21\nvalue = [21, 0]"] ;
101 -> 102 ;
103 [label="X[1] <= 2.595\ngini = 0.326\nsamples = 112\nvalue = [89, 23]"] ;
101 -> 103 ;
104 [label="X[1] <= 2.565\ngini = 0.461\nsamples = 36\nvalue = [23, 13]"] ;
103 -> 104 ;
105 [label="X[1] <= 2.555\ngini = 0.346\nsamples = 9\nvalue = [7, 2]"] ;
104 -> 105 ;
106 [label="gini = 0.32\nsamples = 5\nvalue = [4, 1]"] ;
105 -> 106 ;
107 [label="gini = 0.375\nsamples = 4\nvalue = [3, 1]"] ;
105 -> 107 ;
108 [label="X[1] <= 2.575\ngini = 0.483\nsamples = 27\nvalue = [16, 11]"] ;
104 -> 108 ;
109 [label="gini = 0.49\nsamples = 7\nvalue = [3, 4]"] ;
108 -> 109 ;
110 [label="X[1] <= 2.585\ngini = 0.455\nsamples = 20\nvalue = [13, 7]"] ;
108 -> 110 ;
111 [label="gini = 0.49\nsamples = 7\nvalue = [4, 3]"] ;
110 -> 111 ;
112 [label="gini = 0.426\nsamples = 13\nvalue = [9, 4]"] ;
110 -> 112 ;
113 [label="X[1] <= 2.635\ngini = 0.229\nsamples = 76\nvalue = [66, 10]"] ;
103 -> 113 ;
114 [label="X[1] <= 2.605\ngini = 0.102\nsamples = 37\nvalue = [35, 2]"] ;
113 -> 114 ;
115 [label="gini = 0.198\nsamples = 18\nvalue = [16, 2]"] ;
114 -> 115 ;
116 [label="gini = 0.0\nsamples = 19\nvalue = [19, 0]"] ;
114 -> 116 ;
117 [label="X[1] <= 2.655\ngini = 0.326\nsamples = 39\nvalue = [31, 8]"] ;
113 -> 117 ;
118 [label="X[0] <= -1.0\ngini = 0.285\nsamples = 29\nvalue = [24, 5]"] ;
117 -> 118 ;
119 [label="gini = 0.0\nsamples = 1\nvalue = [1, 0]"] ;
118 -> 119 ;
120 [label="X[1] <= 2.645\ngini = 0.293\nsamples = 28\nvalue = [23, 5]"] ;
118 -> 120 ;
121 [label="gini = 0.245\nsamples = 7\nvalue = [6, 1]"] ;
120 -> 121 ;
122 [label="gini = 0.308\nsamples = 21\nvalue = [17, 4]"] ;
120 -> 122 ;
123 [label="gini = 0.42\nsamples = 10\nvalue = [7, 3]"] ;
117 -> 123 ;
124 [label="X[1] <= 2.735\ngini = 0.097\nsamples = 118\nvalue = [112, 6]"] ;
78 -> 124 ;
125 [label="X[1] <= 2.695\ngini = 0.062\nsamples = 93\nvalue = [90, 3]"] ;
124 -> 125 ;
126 [label="X[1] <= 2.685\ngini = 0.139\nsamples = 40\nvalue = [37, 3]"] ;
125 -> 126 ;
127 [label="gini = 0.0\nsamples = 21\nvalue = [21, 0]"] ;
126 -> 127 ;
128 [label="gini = 0.266\nsamples = 19\nvalue = [16, 3]"] ;
126 -> 128 ;
129 [label="gini = 0.0\nsamples = 53\nvalue = [53, 0]"] ;
125 -> 129 ;
130 [label="gini = 0.211\nsamples = 25\nvalue = [22, 3]"] ;
124 -> 130 ;
131 [label="X[0] <= -2.0\ngini = 0.465\nsamples = 19\nvalue = [12, 7]"] ;
77 -> 131 ;
132 [label="gini = 0.0\nsamples = 1\nvalue = [1, 0]"] ;
131 -> 132 ;
133 [label="gini = 0.475\nsamples = 18\nvalue = [11, 7]"] ;
131 -> 133 ;
134 [label="X[1] <= 3.465\ngini = 0.038\nsamples = 1565\nvalue = [1535, 30]"] ;
2 -> 134 ;
135 [label="X[1] <= 3.455\ngini = 0.052\nsamples = 1047\nvalue = [1019, 28]"] ;
134 -> 135 ;
136 [label="X[1] <= 3.275\ngini = 0.049\nsamples = 1043\nvalue = [1017, 26]"] ;
135 -> 136 ;
137 [label="X[1] <= 3.105\ngini = 0.026\nsamples = 749\nvalue = [739, 10]"] ;
136 -> 137 ;
138 [label="X[1] <= 2.935\ngini = 0.015\nsamples = 529\nvalue = [525, 4]"] ;
137 -> 138 ;
139 [label="X[1] <= 2.865\ngini = 0.027\nsamples = 219\nvalue = [216, 3]"] ;
138 -> 139 ;
140 [label="gini = 0.0\nsamples = 121\nvalue = [121, 0]"] ;
139 -> 140 ;
141 [label="X[1] <= 2.875\ngini = 0.059\nsamples = 98\nvalue = [95, 3]"] ;
139 -> 141 ;
142 [label="gini = 0.117\nsamples = 16\nvalue = [15, 1]"] ;
141 -> 142 ;
143 [label="X[1] <= 2.915\ngini = 0.048\nsamples = 82\nvalue = [80, 2]"] ;
141 -> 143 ;
144 [label="gini = 0.0\nsamples = 33\nvalue = [33, 0]"] ;
143 -> 144 ;
145 [label="X[1] <= 2.925\ngini = 0.078\nsamples = 49\nvalue = [47, 2]"] ;
143 -> 145 ;
146 [label="gini = 0.18\nsamples = 10\nvalue = [9, 1]"] ;
145 -> 146 ;
147 [label="gini = 0.05\nsamples = 39\nvalue = [38, 1]"] ;
145 -> 147 ;
148 [label="X[1] <= 3.075\ngini = 0.006\nsamples = 310\nvalue = [309, 1]"] ;
138 -> 148 ;
149 [label="gini = 0.0\nsamples = 248\nvalue = [248, 0]"] ;
148 -> 149 ;
150 [label="X[1] <= 3.085\ngini = 0.032\nsamples = 62\nvalue = [61, 1]"] ;
148 -> 150 ;
151 [label="gini = 0.444\nsamples = 3\nvalue = [2, 1]"] ;
150 -> 151 ;
152 [label="gini = 0.0\nsamples = 59\nvalue = [59, 0]"] ;
150 -> 152 ;
153 [label="X[1] <= 3.145\ngini = 0.053\nsamples = 220\nvalue = [214, 6]"] ;
137 -> 153 ;
154 [label="X[1] <= 3.135\ngini = 0.139\nsamples = 40\nvalue = [37, 3]"] ;
153 -> 154 ;
155 [label="X[1] <= 3.125\ngini = 0.1\nsamples = 38\nvalue = [36, 2]"] ;
154 -> 155 ;
156 [label="X[1] <= 3.115\ngini = 0.062\nsamples = 31\nvalue = [30, 1]"] ;
155 -> 156 ;
157 [label="gini = 0.105\nsamples = 18\nvalue = [17, 1]"] ;
156 -> 157 ;
158 [label="gini = 0.0\nsamples = 13\nvalue = [13, 0]"] ;
156 -> 158 ;
159 [label="gini = 0.245\nsamples = 7\nvalue = [6, 1]"] ;
155 -> 159 ;
160 [label="gini = 0.5\nsamples = 2\nvalue = [1, 1]"] ;
154 -> 160 ;
161 [label="X[1] <= 3.225\ngini = 0.033\nsamples = 180\nvalue = [177, 3]"] ;
153 -> 161 ;
162 [label="X[1] <= 3.155\ngini = 0.018\nsamples = 109\nvalue = [108, 1]"] ;
161 -> 162 ;
163 [label="gini = 0.053\nsamples = 37\nvalue = [36, 1]"] ;
162 -> 163 ;
164 [label="gini = 0.0\nsamples = 72\nvalue = [72, 0]"] ;
162 -> 164 ;
165 [label="X[1] <= 3.235\ngini = 0.055\nsamples = 71\nvalue = [69, 2]"] ;
161 -> 165 ;
166 [label="gini = 0.124\nsamples = 30\nvalue = [28, 2]"] ;
165 -> 166 ;
167 [label="gini = 0.0\nsamples = 41\nvalue = [41, 0]"] ;
165 -> 167 ;
168 [label="X[1] <= 3.335\ngini = 0.103\nsamples = 294\nvalue = [278, 16]"] ;
136 -> 168 ;
169 [label="X[1] <= 3.325\ngini = 0.181\nsamples = 109\nvalue = [98, 11]"] ;
168 -> 169 ;
170 [label="X[1] <= 3.295\ngini = 0.092\nsamples = 83\nvalue = [79, 4]"] ;
169 -> 170 ;
171 [label="X[1] <= 3.285\ngini = 0.278\nsamples = 24\nvalue = [20, 4]"] ;
170 -> 171 ;
172 [label="gini = 0.245\nsamples = 14\nvalue = [12, 2]"] ;
171 -> 172 ;
173 [label="gini = 0.32\nsamples = 10\nvalue = [8, 2]"] ;
171 -> 173 ;
174 [label="gini = 0.0\nsamples = 59\nvalue = [59, 0]"] ;
170 -> 174 ;
175 [label="gini = 0.393\nsamples = 26\nvalue = [19, 7]"] ;
169 -> 175 ;
176 [label="X[1] <= 3.385\ngini = 0.053\nsamples = 185\nvalue = [180, 5]"] ;
168 -> 176 ;
177 [label="X[1] <= 3.375\ngini = 0.1\nsamples = 76\nvalue = [72, 4]"] ;
176 -> 177 ;
178 [label="gini = 0.0\nsamples = 47\nvalue = [47, 0]"] ;
177 -> 178 ;
179 [label="gini = 0.238\nsamples = 29\nvalue = [25, 4]"] ;
177 -> 179 ;
180 [label="X[1] <= 3.425\ngini = 0.018\nsamples = 109\nvalue = [108, 1]"] ;
176 -> 180 ;
181 [label="X[1] <= 3.415\ngini = 0.033\nsamples = 59\nvalue = [58, 1]"] ;
180 -> 181 ;
182 [label="gini = 0.0\nsamples = 40\nvalue = [40, 0]"] ;
181 -> 182 ;
183 [label="gini = 0.1\nsamples = 19\nvalue = [18, 1]"] ;
181 -> 183 ;
184 [label="gini = 0.0\nsamples = 50\nvalue = [50, 0]"] ;
180 -> 184 ;
185 [label="gini = 0.5\nsamples = 4\nvalue = [2, 2]"] ;
135 -> 185 ;
186 [label="X[1] <= 4.275\ngini = 0.008\nsamples = 518\nvalue = [516, 2]"] ;
134 -> 186 ;
187 [label="gini = 0.0\nsamples = 428\nvalue = [428, 0]"] ;
186 -> 187 ;
188 [label="X[1] <= 4.285\ngini = 0.043\nsamples = 90\nvalue = [88, 2]"] ;
186 -> 188 ;
189 [label="gini = 0.0\nsamples = 1\nvalue = [0, 1]"] ;
188 -> 189 ;
190 [label="X[1] <= 4.37\ngini = 0.022\nsamples = 89\nvalue = [88, 1]"] ;
188 -> 190 ;
191 [label="X[1] <= 4.335\ngini = 0.071\nsamples = 27\nvalue = [26, 1]"] ;
190 -> 191 ;
192 [label="gini = 0.0\nsamples = 26\nvalue = [26, 0]"] ;
191 -> 192 ;
193 [label="gini = 0.0\nsamples = 1\nvalue = [0, 1]"] ;
191 -> 193 ;
194 [label="gini = 0.0\nsamples = 62\nvalue = [62, 0]"] ;
190 -> 194 ;
195 [label="X[0] <= 12.5\ngini = 0.024\nsamples = 165628\nvalue = [163650, 1978]"] ;
1 -> 195 ;
196 [label="X[1] <= 2.705\ngini = 0.019\nsamples = 128271\nvalue = [127050, 1221]"] ;
195 -> 196 ;
197 [label="X[0] <= 1.5\ngini = 0.026\nsamples = 50093\nvalue = [49435, 658]"] ;
196 -> 197 ;
198 [label="X[1] <= 1.985\ngini = 0.039\nsamples = 18437\nvalue = [18069, 368]"] ;
197 -> 198 ;
199 [label="X[1] <= 0.825\ngini = 0.008\nsamples = 3543\nvalue = [3528, 15]"] ;
198 -> 199 ;
200 [label="X[1] <= 0.775\ngini = 0.017\nsamples = 470\nvalue = [466, 4]"] ;
199 -> 200 ;
201 [label="X[1] <= 0.705\ngini = 0.006\nsamples = 340\nvalue = [339, 1]"] ;
200 -> 201 ;
202 [label="gini = 0.0\nsamples = 223\nvalue = [223, 0]"] ;
201 -> 202 ;
203 [label="X[1] <= 0.72\ngini = 0.017\nsamples = 117\nvalue = [116, 1]"] ;
201 -> 203 ;
204 [label="gini = 0.111\nsamples = 17\nvalue = [16, 1]"] ;
203 -> 204 ;
205 [label="gini = 0.0\nsamples = 100\nvalue = [100, 0]"] ;
203 -> 205 ;
206 [label="X[1] <= 0.785\ngini = 0.045\nsamples = 130\nvalue = [127, 3]"] ;
200 -> 206 ;
207 [label="gini = 0.147\nsamples = 25\nvalue = [23, 2]"] ;
206 -> 207 ;
208 [label="X[1] <= 0.815\ngini = 0.019\nsamples = 105\nvalue = [104, 1]"] ;
206 -> 208 ;
209 [label="gini = 0.0\nsamples = 47\nvalue = [47, 0]"] ;
208 -> 209 ;
210 [label="gini = 0.034\nsamples = 58\nvalue = [57, 1]"] ;
208 -> 210 ;
211 [label="X[1] <= 1.205\ngini = 0.007\nsamples = 3073\nvalue = [3062, 11]"] ;
199 -> 211 ;
212 [label="gini = 0.0\nsamples = 549\nvalue = [549, 0]"] ;
211 -> 212 ;
213 [label="X[1] <= 1.215\ngini = 0.009\nsamples = 2524\nvalue = [2513, 11]"] ;
211 -> 213 ;
214 [label="gini = 0.061\nsamples = 32\nvalue = [31, 1]"] ;
213 -> 214 ;
215 [label="X[1] <= 1.435\ngini = 0.008\nsamples = 2492\nvalue = [2482, 10]"] ;
213 -> 215 ;
216 [label="X[1] <= 1.415\ngini = 0.016\nsamples = 496\nvalue = [492, 4]"] ;
215 -> 216 ;
217 [label="X[1] <= 1.265\ngini = 0.008\nsamples = 469\nvalue = [467, 2]"] ;
216 -> 217 ;
218 [label="X[1] <= 1.255\ngini = 0.019\nsamples = 102\nvalue = [101, 1]"] ;
217 -> 218 ;
219 [label="gini = 0.0\nsamples = 96\nvalue = [96, 0]"] ;
218 -> 219 ;
220 [label="gini = 0.278\nsamples = 6\nvalue = [5, 1]"] ;
218 -> 220 ;
221 [label="X[1] <= 1.375\ngini = 0.005\nsamples = 367\nvalue = [366, 1]"] ;
217 -> 221 ;
222 [label="gini = 0.0\nsamples = 237\nvalue = [237, 0]"] ;
221 -> 222 ;
223 [label="X[1] <= 1.385\ngini = 0.015\nsamples = 130\nvalue = [129, 1]"] ;
221 -> 223 ;
224 [label="gini = 0.038\nsamples = 52\nvalue = [51, 1]"] ;
223 -> 224 ;
225 [label="gini = 0.0\nsamples = 78\nvalue = [78, 0]"] ;
223 -> 225 ;
226 [label="X[1] <= 1.425\ngini = 0.137\nsamples = 27\nvalue = [25, 2]"] ;
216 -> 226 ;
227 [label="gini = 0.219\nsamples = 8\nvalue = [7, 1]"] ;
226 -> 227 ;
228 [label="gini = 0.1\nsamples = 19\nvalue = [18, 1]"] ;
226 -> 228 ;
229 [label="X[1] <= 1.915\ngini = 0.006\nsamples = 1996\nvalue = [1990, 6]"] ;
215 -> 229 ;
230 [label="X[1] <= 1.815\ngini = 0.004\nsamples = 1784\nvalue = [1780, 4]"] ;
229 -> 230 ;
231 [label="X[1] <= 1.805\ngini = 0.007\nsamples = 1140\nvalue = [1136, 4]"] ;
230 -> 231 ;
232 [label="X[1] <= 1.585\ngini = 0.006\nsamples = 1071\nvalue = [1068, 3]"] ;
231 -> 232 ;
233 [label="gini = 0.0\nsamples = 345\nvalue = [345, 0]"] ;
232 -> 233 ;
234 [label="X[1] <= 1.595\ngini = 0.008\nsamples = 726\nvalue = [723, 3]"] ;
232 -> 234 ;
235 [label="gini = 0.038\nsamples = 51\nvalue = [50, 1]"] ;
234 -> 235 ;
236 [label="X[1] <= 1.755\ngini = 0.006\nsamples = 675\nvalue = [673, 2]"] ;
234 -> 236 ;
237 [label="X[1] <= 1.675\ngini = 0.004\nsamples = 528\nvalue = [527, 1]"] ;
236 -> 237 ;
238 [label="X[1] <= 1.665\ngini = 0.01\nsamples = 207\nvalue = [206, 1]"] ;
237 -> 238 ;
239 [label="gini = 0.0\nsamples = 137\nvalue = [137, 0]"] ;
238 -> 239 ;
240 [label="gini = 0.028\nsamples = 70\nvalue = [69, 1]"] ;
238 -> 240 ;
241 [label="gini = 0.0\nsamples = 321\nvalue = [321, 0]"] ;
237 -> 241 ;
242 [label="X[1] <= 1.765\ngini = 0.014\nsamples = 147\nvalue = [146, 1]"] ;
236 -> 242 ;
243 [label="gini = 0.061\nsamples = 32\nvalue = [31, 1]"] ;
242 -> 243 ;
244 [label="gini = 0.0\nsamples = 115\nvalue = [115, 0]"] ;
242 -> 244 ;
245 [label="gini = 0.029\nsamples = 69\nvalue = [68, 1]"] ;
231 -> 245 ;
246 [label="gini = 0.0\nsamples = 644\nvalue = [644, 0]"] ;
230 -> 246 ;
247 [label="X[1] <= 1.925\ngini = 0.019\nsamples = 212\nvalue = [210, 2]"] ;
229 -> 247 ;
248 [label="gini = 0.117\nsamples = 16\nvalue = [15, 1]"] ;
247 -> 248 ;
249 [label="X[1] <= 1.945\ngini = 0.01\nsamples = 196\nvalue = [195, 1]"] ;
247 -> 249 ;
250 [label="X[1] <= 1.935\ngini = 0.026\nsamples = 76\nvalue = [75, 1]"] ;
249 -> 250 ;
251 [label="gini = 0.0\nsamples = 27\nvalue = [27, 0]"] ;
250 -> 251 ;
252 [label="gini = 0.04\nsamples = 49\nvalue = [48, 1]"] ;
250 -> 252 ;
253 [label="gini = 0.0\nsamples = 120\nvalue = [120, 0]"] ;
249 -> 253 ;
254 [label="X[1] <= 2.405\ngini = 0.046\nsamples = 14894\nvalue = [14541, 353]"] ;
198 -> 254 ;
255 [label="X[1] <= 2.355\ngini = 0.064\nsamples = 6541\nvalue = [6326, 215]"] ;
254 -> 255 ;
256 [label="X[1] <= 2.005\ngini = 0.048\nsamples = 5620\nvalue = [5483, 137]"] ;
255 -> 256 ;
257 [label="X[1] <= 1.995\ngini = 0.192\nsamples = 102\nvalue = [91, 11]"] ;
256 -> 257 ;
258 [label="gini = 0.086\nsamples = 67\nvalue = [64, 3]"] ;
257 -> 258 ;
259 [label="gini = 0.353\nsamples = 35\nvalue = [27, 8]"] ;
257 -> 259 ;
260 [label="X[1] <= 2.275\ngini = 0.045\nsamples = 5518\nvalue = [5392, 126]"] ;
256 -> 260 ;
261 [label="X[1] <= 2.135\ngini = 0.035\nsamples = 4394\nvalue = [4316, 78]"] ;
260 -> 261 ;
262 [label="X[1] <= 2.095\ngini = 0.053\nsamples = 1215\nvalue = [1182, 33]"] ;
261 -> 262 ;
263 [label="X[1] <= 2.015\ngini = 0.032\nsamples = 866\nvalue = [852, 14]"] ;
262 -> 263 ;
264 [label="gini = 0.081\nsamples = 95\nvalue = [91, 4]"] ;
263 -> 264 ;
265 [label="X[1] <= 2.055\ngini = 0.026\nsamples = 771\nvalue = [761, 10]"] ;
263 -> 265 ;
266 [label="X[1] <= 2.035\ngini = 0.018\nsamples = 443\nvalue = [439, 4]"] ;
265 -> 266 ;
267 [label="X[1] <= 2.025\ngini = 0.03\nsamples = 198\nvalue = [195, 3]"] ;
266 -> 267 ;
268 [label="gini = 0.029\nsamples = 138\nvalue = [136, 2]"] ;
267 -> 268 ;
269 [label="gini = 0.033\nsamples = 60\nvalue = [59, 1]"] ;
267 -> 269 ;
270 [label="X[1] <= 2.045\ngini = 0.008\nsamples = 245\nvalue = [244, 1]"] ;
266 -> 270 ;
271 [label="gini = 0.0\nsamples = 158\nvalue = [158, 0]"] ;
270 -> 271 ;
272 [label="gini = 0.023\nsamples = 87\nvalue = [86, 1]"] ;
270 -> 272 ;
273 [label="X[1] <= 2.085\ngini = 0.036\nsamples = 328\nvalue = [322, 6]"] ;
265 -> 273 ;
274 [label="X[1] <= 2.075\ngini = 0.047\nsamples = 251\nvalue = [245, 6]"] ;
273 -> 274 ;
275 [label="X[1] <= 2.065\ngini = 0.06\nsamples = 130\nvalue = [126, 4]"] ;
274 -> 275 ;
276 [label="gini = 0.029\nsamples = 67\nvalue = [66, 1]"] ;
275 -> 276 ;
277 [label="gini = 0.091\nsamples = 63\nvalue = [60, 3]"] ;
275 -> 277 ;
278 [label="gini = 0.033\nsamples = 121\nvalue = [119, 2]"] ;
274 -> 278 ;
279 [label="gini = 0.0\nsamples = 77\nvalue = [77, 0]"] ;
273 -> 279 ;
280 [label="X[1] <= 2.125\ngini = 0.103\nsamples = 349\nvalue = [330, 19]"] ;
262 -> 280 ;
281 [label="X[1] <= 2.105\ngini = 0.138\nsamples = 215\nvalue = [199, 16]"] ;
280 -> 281 ;
282 [label="gini = 0.16\nsamples = 114\nvalue = [104, 10]"] ;
281 -> 282 ;
283 [label="X[1] <= 2.115\ngini = 0.112\nsamples = 101\nvalue = [95, 6]"] ;
281 -> 283 ;
284 [label="gini = 0.0\nsamples = 36\nvalue = [36, 0]"] ;
283 -> 284 ;
285 [label="gini = 0.168\nsamples = 65\nvalue = [59, 6]"] ;
283 -> 285 ;
286 [label="gini = 0.044\nsamples = 134\nvalue = [131, 3]"] ;
280 -> 286 ;
287 [label="X[1] <= 2.195\ngini = 0.028\nsamples = 3179\nvalue = [3134, 45]"] ;
261 -> 287 ;
288 [label="X[1] <= 2.145\ngini = 0.017\nsamples = 1178\nvalue = [1168, 10]"] ;
287 -> 288 ;
289 [label="gini = 0.034\nsamples = 171\nvalue = [168, 3]"] ;
288 -> 289 ;
290 [label="X[1] <= 2.155\ngini = 0.014\nsamples = 1007\nvalue = [1000, 7]"] ;
288 -> 290 ;
291 [label="gini = 0.0\nsamples = 165\nvalue = [165, 0]"] ;
290 -> 291 ;
292 [label="X[1] <= 2.165\ngini = 0.016\nsamples = 842\nvalue = [835, 7]"] ;
290 -> 292 ;
293 [label="gini = 0.022\nsamples = 92\nvalue = [91, 1]"] ;
292 -> 293 ;
294 [label="X[1] <= 2.175\ngini = 0.016\nsamples = 750\nvalue = [744, 6]"] ;
292 -> 294 ;
295 [label="gini = 0.011\nsamples = 184\nvalue = [183, 1]"] ;
294 -> 295 ;
296 [label="X[1] <= 2.185\ngini = 0.018\nsamples = 566\nvalue = [561, 5]"] ;
294 -> 296 ;
297 [label="gini = 0.017\nsamples = 466\nvalue = [462, 4]"] ;
296 -> 297 ;
298 [label="gini = 0.02\nsamples = 100\nvalue = [99, 1]"] ;
296 -> 298 ;
299 [label="X[1] <= 2.245\ngini = 0.034\nsamples = 2001\nvalue = [1966, 35]"] ;
287 -> 299 ;
300 [label="X[1] <= 2.225\ngini = 0.043\nsamples = 1418\nvalue = [1387, 31]"] ;
299 -> 300 ;
301 [label="X[1] <= 2.215\ngini = 0.037\nsamples = 748\nvalue = [734, 14]"] ;
300 -> 301 ;
302 [label="X[1] <= 2.205\ngini = 0.045\nsamples = 570\nvalue = [557, 13]"] ;
301 -> 302 ;
303 [label="gini = 0.039\nsamples = 149\nvalue = [146, 3]"] ;
302 -> 303 ;
304 [label="gini = 0.046\nsamples = 421\nvalue = [411, 10]"] ;
302 -> 304 ;
305 [label="gini = 0.011\nsamples = 178\nvalue = [177, 1]"] ;
301 -> 305 ;
306 [label="X[1] <= 2.235\ngini = 0.049\nsamples = 670\nvalue = [653, 17]"] ;
300 -> 306 ;
307 [label="gini = 0.066\nsamples = 323\nvalue = [312, 11]"] ;
306 -> 307 ;
308 [label="gini = 0.034\nsamples = 347\nvalue = [341, 6]"] ;
306 -> 308 ;
309 [label="X[1] <= 2.255\ngini = 0.014\nsamples = 583\nvalue = [579, 4]"] ;
299 -> 309 ;
310 [label="gini = 0.027\nsamples = 147\nvalue = [145, 2]"] ;
309 -> 310 ;
311 [label="X[1] <= 2.265\ngini = 0.009\nsamples = 436\nvalue = [434, 2]"] ;
309 -> 311 ;
312 [label="gini = 0.013\nsamples = 297\nvalue = [295, 2]"] ;
311 -> 312 ;
313 [label="gini = 0.0\nsamples = 139\nvalue = [139, 0]"] ;
311 -> 313 ;
314 [label="X[1] <= 2.345\ngini = 0.082\nsamples = 1124\nvalue = [1076, 48]"] ;
260 -> 314 ;
315 [label="X[1] <= 2.285\ngini = 0.089\nsamples = 1004\nvalue = [957, 47]"] ;
314 -> 315 ;
316 [label="gini = 0.153\nsamples = 36\nvalue = [33, 3]"] ;
315 -> 316 ;
317 [label="X[1] <= 2.295\ngini = 0.087\nsamples = 968\nvalue = [924, 44]"] ;
315 -> 317 ;
318 [label="gini = 0.041\nsamples = 143\nvalue = [140, 3]"] ;
317 -> 318 ;
319 [label="X[1] <= 2.305\ngini = 0.094\nsamples = 825\nvalue = [784, 41]"] ;
317 -> 319 ;
320 [label="gini = 0.159\nsamples = 126\nvalue = [115, 11]"] ;
319 -> 320 ;
321 [label="X[1] <= 2.315\ngini = 0.082\nsamples = 699\nvalue = [669, 30]"] ;
319 -> 321 ;
322 [label="gini = 0.036\nsamples = 110\nvalue = [108, 2]"] ;
321 -> 322 ;
323 [label="X[1] <= 2.335\ngini = 0.091\nsamples = 589\nvalue = [561, 28]"] ;
321 -> 323 ;
324 [label="X[1] <= 2.325\ngini = 0.084\nsamples = 435\nvalue = [416, 19]"] ;
323 -> 324 ;
325 [label="gini = 0.087\nsamples = 286\nvalue = [273, 13]"] ;
324 -> 325 ;
326 [label="gini = 0.077\nsamples = 149\nvalue = [143, 6]"] ;
324 -> 326 ;
327 [label="gini = 0.11\nsamples = 154\nvalue = [145, 9]"] ;
323 -> 327 ;
328 [label="gini = 0.017\nsamples = 120\nvalue = [119, 1]"] ;
314 -> 328 ;
329 [label="X[1] <= 2.365\ngini = 0.155\nsamples = 921\nvalue = [843, 78]"] ;
255 -> 329 ;
330 [label="gini = 0.255\nsamples = 207\nvalue = [176, 31]"] ;
329 -> 330 ;
331 [label="X[1] <= 2.395\ngini = 0.123\nsamples = 714\nvalue = [667, 47]"] ;
329 -> 331 ;
332 [label="X[1] <= 2.375\ngini = 0.065\nsamples = 418\nvalue = [404, 14]"] ;
331 -> 332 ;
333 [label="gini = 0.134\nsamples = 97\nvalue = [90, 7]"] ;
332 -> 333 ;
334 [label="X[1] <= 2.385\ngini = 0.043\nsamples = 321\nvalue = [314, 7]"] ;
332 -> 334 ;
335 [label="gini = 0.055\nsamples = 247\nvalue = [240, 7]"] ;
334 -> 335 ;
336 [label="gini = 0.0\nsamples = 74\nvalue = [74, 0]"] ;
334 -> 336 ;
337 [label="gini = 0.198\nsamples = 296\nvalue = [263, 33]"] ;
331 -> 337 ;
338 [label="X[1] <= 2.445\ngini = 0.032\nsamples = 8353\nvalue = [8215, 138]"] ;
254 -> 338 ;
339 [label="X[1] <= 2.425\ngini = 0.006\nsamples = 991\nvalue = [988, 3]"] ;
338 -> 339 ;
340 [label="gini = 0.0\nsamples = 486\nvalue = [486, 0]"] ;
339 -> 340 ;
341 [label="X[1] <= 2.435\ngini = 0.012\nsamples = 505\nvalue = [502, 3]"] ;
339 -> 341 ;
342 [label="gini = 0.031\nsamples = 193\nvalue = [190, 3]"] ;
341 -> 342 ;
343 [label="gini = 0.0\nsamples = 312\nvalue = [312, 0]"] ;
341 -> 343 ;
344 [label="X[1] <= 2.475\ngini = 0.036\nsamples = 7362\nvalue = [7227, 135]"] ;
338 -> 344 ;
345 [label="X[1] <= 2.455\ngini = 0.097\nsamples = 510\nvalue = [484, 26]"] ;
344 -> 345 ;
346 [label="gini = 0.072\nsamples = 296\nvalue = [285, 11]"] ;
345 -> 346 ;
347 [label="X[1] <= 2.465\ngini = 0.13\nsamples = 214\nvalue = [199, 15]"] ;
345 -> 347 ;
348 [label="gini = 0.216\nsamples = 81\nvalue = [71, 10]"] ;
347 -> 348 ;
349 [label="gini = 0.072\nsamples = 133\nvalue = [128, 5]"] ;
347 -> 349 ;
350 [label="X[1] <= 2.695\ngini = 0.031\nsamples = 6852\nvalue = [6743, 109]"] ;
344 -> 350 ;
351 [label="X[1] <= 2.685\ngini = 0.033\nsamples = 6319\nvalue = [6213, 106]"] ;
350 -> 351 ;
352 [label="X[1] <= 2.495\ngini = 0.032\nsamples = 6025\nvalue = [5928, 97]"] ;
351 -> 352 ;
353 [label="X[1] <= 2.485\ngini = 0.045\nsamples = 903\nvalue = [882, 21]"] ;
352 -> 353 ;
354 [label="gini = 0.04\nsamples = 346\nvalue = [339, 7]"] ;
353 -> 354 ;
355 [label="gini = 0.049\nsamples = 557\nvalue = [543, 14]"] ;
353 -> 355 ;
356 [label="X[1] <= 2.515\ngini = 0.029\nsamples = 5122\nvalue = [5046, 76]"] ;
352 -> 356 ;
357 [label="X[1] <= 2.505\ngini = 0.008\nsamples = 742\nvalue = [739, 3]"] ;
356 -> 357 ;
358 [label="gini = 0.008\nsamples = 256\nvalue = [255, 1]"] ;
357 -> 358 ;
359 [label="gini = 0.008\nsamples = 486\nvalue = [484, 2]"] ;
357 -> 359 ;
360 [label="X[1] <= 2.525\ngini = 0.033\nsamples = 4380\nvalue = [4307, 73]"] ;
356 -> 360 ;
361 [label="gini = 0.102\nsamples = 74\nvalue = [70, 4]"] ;
360 -> 361 ;
362 [label="X[1] <= 2.655\ngini = 0.032\nsamples = 4306\nvalue = [4237, 69]"] ;
360 -> 362 ;
363 [label="X[1] <= 2.545\ngini = 0.034\nsamples = 3549\nvalue = [3487, 62]"] ;
362 -> 363 ;
364 [label="X[1] <= 2.535\ngini = 0.015\nsamples = 515\nvalue = [511, 4]"] ;
363 -> 364 ;
365 [label="gini = 0.043\nsamples = 181\nvalue = [177, 4]"] ;
364 -> 365 ;
366 [label="gini = 0.0\nsamples = 334\nvalue = [334, 0]"] ;
364 -> 366 ;
367 [label="X[1] <= 2.605\ngini = 0.038\nsamples = 3034\nvalue = [2976, 58]"] ;
363 -> 367 ;
368 [label="X[1] <= 2.595\ngini = 0.043\nsamples = 1815\nvalue = [1775, 40]"] ;
367 -> 368 ;
369 [label="X[1] <= 2.575\ngini = 0.033\nsamples = 1493\nvalue = [1468, 25]"] ;
368 -> 369 ;
370 [label="X[1] <= 2.555\ngini = 0.041\nsamples = 773\nvalue = [757, 16]"] ;
369 -> 370 ;
371 [label="gini = 0.035\nsamples = 340\nvalue = [334, 6]"] ;
370 -> 371 ;
372 [label="X[1] <= 2.565\ngini = 0.045\nsamples = 433\nvalue = [423, 10]"] ;
370 -> 372 ;
373 [label="gini = 0.049\nsamples = 279\nvalue = [272, 7]"] ;
372 -> 373 ;
374 [label="gini = 0.038\nsamples = 154\nvalue = [151, 3]"] ;
372 -> 374 ;
375 [label="X[1] <= 2.585\ngini = 0.025\nsamples = 720\nvalue = [711, 9]"] ;
369 -> 375 ;
376 [label="gini = 0.026\nsamples = 378\nvalue = [373, 5]"] ;
375 -> 376 ;
377 [label="gini = 0.023\nsamples = 342\nvalue = [338, 4]"] ;
375 -> 377 ;
378 [label="gini = 0.089\nsamples = 322\nvalue = [307, 15]"] ;
368 -> 378 ;
379 [label="X[1] <= 2.645\ngini = 0.029\nsamples = 1219\nvalue = [1201, 18]"] ;
367 -> 379 ;
380 [label="X[1] <= 2.625\ngini = 0.027\nsamples = 946\nvalue = [933, 13]"] ;
379 -> 380 ;
381 [label="X[1] <= 2.615\ngini = 0.028\nsamples = 429\nvalue = [423, 6]"] ;
380 -> 381 ;
382 [label="gini = 0.027\nsamples = 147\nvalue = [145, 2]"] ;
381 -> 382 ;
383 [label="gini = 0.028\nsamples = 282\nvalue = [278, 4]"] ;
381 -> 383 ;
384 [label="X[1] <= 2.635\ngini = 0.027\nsamples = 517\nvalue = [510, 7]"] ;
380 -> 384 ;
385 [label="gini = 0.027\nsamples = 223\nvalue = [220, 3]"] ;
384 -> 385 ;
386 [label="gini = 0.027\nsamples = 294\nvalue = [290, 4]"] ;
384 -> 386 ;
387 [label="gini = 0.036\nsamples = 273\nvalue = [268, 5]"] ;
379 -> 387 ;
388 [label="X[1] <= 2.675\ngini = 0.018\nsamples = 757\nvalue = [750, 7]"] ;
362 -> 388 ;
389 [label="X[1] <= 2.665\ngini = 0.022\nsamples = 537\nvalue = [531, 6]"] ;
388 -> 389 ;
390 [label="gini = 0.022\nsamples = 177\nvalue = [175, 2]"] ;
389 -> 390 ;
391 [label="gini = 0.022\nsamples = 360\nvalue = [356, 4]"] ;
389 -> 391 ;
392 [label="gini = 0.009\nsamples = 220\nvalue = [219, 1]"] ;
388 -> 392 ;
393 [label="gini = 0.059\nsamples = 294\nvalue = [285, 9]"] ;
351 -> 393 ;
394 [label="gini = 0.011\nsamples = 533\nvalue = [530, 3]"] ;
350 -> 394 ;
395 [label="X[0] <= 7.5\ngini = 0.018\nsamples = 31656\nvalue = [31366, 290]"] ;
197 -> 395 ;
396 [label="X[1] <= 2.695\ngini = 0.015\nsamples = 22140\nvalue = [21975, 165]"] ;
395 -> 396 ;
397 [label="X[1] <= 2.405\ngini = 0.014\nsamples = 21288\nvalue = [21135, 153]"] ;
396 -> 397 ;
398 [label="X[1] <= 2.395\ngini = 0.017\nsamples = 11324\nvalue = [11225, 99]"] ;
397 -> 398 ;
399 [label="X[1] <= 0.825\ngini = 0.017\nsamples = 11142\nvalue = [11049, 93]"] ;
398 -> 399 ;
400 [label="X[1] <= 0.685\ngini = 0.028\nsamples = 711\nvalue = [701, 10]"] ;
399 -> 400 ;
401 [label="gini = 0.0\nsamples = 204\nvalue = [204, 0]"] ;
400 -> 401 ;
402 [label="X[1] <= 0.72\ngini = 0.039\nsamples = 507\nvalue = [497, 10]"] ;
400 -> 402 ;
403 [label="X[0] <= 6.5\ngini = 0.076\nsamples = 127\nvalue = [122, 5]"] ;
402 -> 403 ;
404 [label="X[1] <= 0.705\ngini = 0.037\nsamples = 105\nvalue = [103, 2]"] ;
403 -> 404 ;
405 [label="gini = 0.0\nsamples = 70\nvalue = [70, 0]"] ;
404 -> 405 ;
406 [label="X[0] <= 3.5\ngini = 0.108\nsamples = 35\nvalue = [33, 2]"] ;
404 -> 406 ;
407 [label="X[0] <= 2.5\ngini = 0.153\nsamples = 24\nvalue = [22, 2]"] ;
406 -> 407 ;
408 [label="gini = 0.133\nsamples = 14\nvalue = [13, 1]"] ;
407 -> 408 ;
409 [label="gini = 0.18\nsamples = 10\nvalue = [9, 1]"] ;
407 -> 409 ;
410 [label="gini = 0.0\nsamples = 11\nvalue = [11, 0]"] ;
406 -> 410 ;
411 [label="X[1] <= 0.705\ngini = 0.236\nsamples = 22\nvalue = [19, 3]"] ;
403 -> 411 ;
412 [label="X[1] <= 0.695\ngini = 0.198\nsamples = 18\nvalue = [16, 2]"] ;
411 -> 412 ;
413 [label="gini = 0.26\nsamples = 13\nvalue = [11, 2]"] ;
412 -> 413 ;
414 [label="gini = 0.0\nsamples = 5\nvalue = [5, 0]"] ;
412 -> 414 ;
415 [label="gini = 0.375\nsamples = 4\nvalue = [3, 1]"] ;
411 -> 415 ;
416 [label="X[1] <= 0.815\ngini = 0.026\nsamples = 380\nvalue = [375, 5]"] ;
402 -> 416 ;
417 [label="X[0] <= 5.5\ngini = 0.008\nsamples = 255\nvalue = [254, 1]"] ;
416 -> 417 ;
418 [label="gini = 0.0\nsamples = 192\nvalue = [192, 0]"] ;
417 -> 418 ;
419 [label="X[0] <= 6.5\ngini = 0.031\nsamples = 63\nvalue = [62, 1]"] ;
417 -> 419 ;
420 [label="X[1] <= 0.785\ngini = 0.062\nsamples = 31\nvalue = [30, 1]"] ;
419 -> 420 ;
421 [label="X[1] <= 0.77\ngini = 0.111\nsamples = 17\nvalue = [16, 1]"] ;
420 -> 421 ;
422 [label="gini = 0.0\nsamples = 13\nvalue = [13, 0]"] ;
421 -> 422 ;
423 [label="gini = 0.375\nsamples = 4\nvalue = [3, 1]"] ;
421 -> 423 ;
424 [label="gini = 0.0\nsamples = 14\nvalue = [14, 0]"] ;
420 -> 424 ;
425 [label="gini = 0.0\nsamples = 32\nvalue = [32, 0]"] ;
419 -> 425 ;
426 [label="X[0] <= 4.5\ngini = 0.062\nsamples = 125\nvalue = [121, 4]"] ;
416 -> 426 ;
427 [label="X[0] <= 3.5\ngini = 0.089\nsamples = 86\nvalue = [82, 4]"] ;
426 -> 427 ;
428 [label="X[0] <= 2.5\ngini = 0.087\nsamples = 66\nvalue = [63, 3]"] ;
427 -> 428 ;
429 [label="gini = 0.091\nsamples = 42\nvalue = [40, 2]"] ;
428 -> 429 ;
430 [label="gini = 0.08\nsamples = 24\nvalue = [23, 1]"] ;
428 -> 430 ;
431 [label="gini = 0.095\nsamples = 20\nvalue = [19, 1]"] ;
427 -> 431 ;
432 [label="gini = 0.0\nsamples = 39\nvalue = [39, 0]"] ;
426 -> 432 ;
433 [label="X[1] <= 1.875\ngini = 0.016\nsamples = 10431\nvalue = [10348, 83]"] ;
399 -> 433 ;
434 [label="X[1] <= 1.795\ngini = 0.012\nsamples = 3693\nvalue = [3671, 22]"] ;
433 -> 434 ;
435 [label="X[1] <= 1.715\ngini = 0.014\nsamples = 2993\nvalue = [2972, 21]"] ;
434 -> 435 ;
436 [label="X[1] <= 1.435\ngini = 0.012\nsamples = 2589\nvalue = [2574, 15]"] ;
435 -> 436 ;
437 [label="X[1] <= 1.395\ngini = 0.016\nsamples = 1595\nvalue = [1582, 13]"] ;
436 -> 437 ;
438 [label="X[1] <= 1.285\ngini = 0.012\nsamples = 1451\nvalue = [1442, 9]"] ;
437 -> 438 ;
439 [label="X[1] <= 1.245\ngini = 0.016\nsamples = 1148\nvalue = [1139, 9]"] ;
438 -> 439 ;
440 [label="X[1] <= 1.115\ngini = 0.012\nsamples = 1020\nvalue = [1014, 6]"] ;
439 -> 440 ;
441 [label="X[0] <= 3.5\ngini = 0.008\nsamples = 757\nvalue = [754, 3]"] ;
440 -> 441 ;
442 [label="X[0] <= 2.5\ngini = 0.016\nsamples = 367\nvalue = [364, 3]"] ;
441 -> 442 ;
443 [label="X[1] <= 0.92\ngini = 0.008\nsamples = 250\nvalue = [249, 1]"] ;
442 -> 443 ;
444 [label="X[1] <= 0.905\ngini = 0.025\nsamples = 79\nvalue = [78, 1]"] ;
443 -> 444 ;
445 [label="gini = 0.0\nsamples = 48\nvalue = [48, 0]"] ;
444 -> 445 ;
446 [label="gini = 0.062\nsamples = 31\nvalue = [30, 1]"] ;
444 -> 446 ;
447 [label="gini = 0.0\nsamples = 171\nvalue = [171, 0]"] ;
443 -> 447 ;
448 [label="X[1] <= 0.905\ngini = 0.034\nsamples = 117\nvalue = [115, 2]"] ;
442 -> 448 ;
449 [label="gini = 0.0\nsamples = 23\nvalue = [23, 0]"] ;
448 -> 449 ;
450 [label="X[1] <= 0.915\ngini = 0.042\nsamples = 94\nvalue = [92, 2]"] ;
448 -> 450 ;
451 [label="gini = 0.095\nsamples = 20\nvalue = [19, 1]"] ;
450 -> 451 ;
452 [label="X[1] <= 1.045\ngini = 0.027\nsamples = 74\nvalue = [73, 1]"] ;
450 -> 452 ;
453 [label="gini = 0.0\nsamples = 41\nvalue = [41, 0]"] ;
452 -> 453 ;
454 [label="X[1] <= 1.055\ngini = 0.059\nsamples = 33\nvalue = [32, 1]"] ;
452 -> 454 ;
455 [label="gini = 0.18\nsamples = 10\nvalue = [9, 1]"] ;
454 -> 455 ;
456 [label="gini = 0.0\nsamples = 23\nvalue = [23, 0]"] ;
454 -> 456 ;
457 [label="gini = 0.0\nsamples = 390\nvalue = [390, 0]"] ;
441 -> 457 ;
458 [label="X[1] <= 1.125\ngini = 0.023\nsamples = 263\nvalue = [260, 3]"] ;
440 -> 458 ;
459 [label="gini = 0.0\nsamples = 1\nvalue = [0, 1]"] ;
458 -> 459 ;
460 [label="X[1] <= 1.185\ngini = 0.015\nsamples = 262\nvalue = [260, 2]"] ;
458 -> 460 ;
461 [label="X[1] <= 1.175\ngini = 0.035\nsamples = 112\nvalue = [110, 2]"] ;
460 -> 461 ;
462 [label="gini = 0.0\nsamples = 83\nvalue = [83, 0]"] ;
461 -> 462 ;
463 [label="X[0] <= 6.5\ngini = 0.128\nsamples = 29\nvalue = [27, 2]"] ;
461 -> 463 ;
464 [label="X[0] <= 3.5\ngini = 0.08\nsamples = 24\nvalue = [23, 1]"] ;
463 -> 464 ;
465 [label="X[0] <= 2.5\ngini = 0.219\nsamples = 8\nvalue = [7, 1]"] ;
464 -> 465 ;
466 [label="gini = 0.0\nsamples = 5\nvalue = [5, 0]"] ;
465 -> 466 ;
467 [label="gini = 0.444\nsamples = 3\nvalue = [2, 1]"] ;
465 -> 467 ;
468 [label="gini = 0.0\nsamples = 16\nvalue = [16, 0]"] ;
464 -> 468 ;
469 [label="gini = 0.32\nsamples = 5\nvalue = [4, 1]"] ;
463 -> 469 ;
470 [label="gini = 0.0\nsamples = 150\nvalue = [150, 0]"] ;
460 -> 470 ;
471 [label="X[0] <= 2.5\ngini = 0.046\nsamples = 128\nvalue = [125, 3]"] ;
439 -> 471 ;
472 [label="gini = 0.0\nsamples = 48\nvalue = [48, 0]"] ;
471 -> 472 ;
473 [label="X[0] <= 5.5\ngini = 0.072\nsamples = 80\nvalue = [77, 3]"] ;
471 -> 473 ;
474 [label="X[1] <= 1.275\ngini = 0.107\nsamples = 53\nvalue = [50, 3]"] ;
473 -> 474 ;
475 [label="X[0] <= 3.5\ngini = 0.095\nsamples = 40\nvalue = [38, 2]"] ;
474 -> 475 ;
476 [label="gini = 0.0\nsamples = 13\nvalue = [13, 0]"] ;
475 -> 476 ;
477 [label="X[1] <= 1.255\ngini = 0.137\nsamples = 27\nvalue = [25, 2]"] ;
475 -> 477 ;
478 [label="X[0] <= 4.5\ngini = 0.165\nsamples = 22\nvalue = [20, 2]"] ;
477 -> 478 ;
479 [label="gini = 0.165\nsamples = 11\nvalue = [10, 1]"] ;
478 -> 479 ;
480 [label="gini = 0.165\nsamples = 11\nvalue = [10, 1]"] ;
478 -> 480 ;
481 [label="gini = 0.0\nsamples = 5\nvalue = [5, 0]"] ;
477 -> 481 ;
482 [label="X[0] <= 3.5\ngini = 0.142\nsamples = 13\nvalue = [12, 1]"] ;
474 -> 482 ;
483 [label="gini = 0.444\nsamples = 3\nvalue = [2, 1]"] ;
482 -> 483 ;
484 [label="gini = 0.0\nsamples = 10\nvalue = [10, 0]"] ;
482 -> 484 ;
485 [label="gini = 0.0\nsamples = 27\nvalue = [27, 0]"] ;
473 -> 485 ;
486 [label="gini = 0.0\nsamples = 303\nvalue = [303, 0]"] ;
438 -> 486 ;
487 [label="X[0] <= 6.5\ngini = 0.054\nsamples = 144\nvalue = [140, 4]"] ;
437 -> 487 ;
488 [label="X[0] <= 4.5\ngini = 0.044\nsamples = 132\nvalue = [129, 3]"] ;
487 -> 488 ;
489 [label="X[1] <= 1.425\ngini = 0.073\nsamples = 79\nvalue = [76, 3]"] ;
488 -> 489 ;
490 [label="X[0] <= 3.5\ngini = 0.058\nsamples = 67\nvalue = [65, 2]"] ;
489 -> 490 ;
491 [label="X[1] <= 1.405\ngini = 0.038\nsamples = 51\nvalue = [50, 1]"] ;
490 -> 491 ;
492 [label="X[0] <= 2.5\ngini = 0.111\nsamples = 17\nvalue = [16, 1]"] ;
491 -> 492 ;
493 [label="gini = 0.165\nsamples = 11\nvalue = [10, 1]"] ;
492 -> 493 ;
494 [label="gini = 0.0\nsamples = 6\nvalue = [6, 0]"] ;
492 -> 494 ;
495 [label="gini = 0.0\nsamples = 34\nvalue = [34, 0]"] ;
491 -> 495 ;
496 [label="X[1] <= 1.405\ngini = 0.117\nsamples = 16\nvalue = [15, 1]"] ;
490 -> 496 ;
497 [label="gini = 0.0\nsamples = 9\nvalue = [9, 0]"] ;
496 -> 497 ;
498 [label="X[1] <= 1.415\ngini = 0.245\nsamples = 7\nvalue = [6, 1]"] ;
496 -> 498 ;
499 [label="gini = 0.32\nsamples = 5\nvalue = [4, 1]"] ;
498 -> 499 ;
500 [label="gini = 0.0\nsamples = 2\nvalue = [2, 0]"] ;
498 -> 500 ;
501 [label="X[0] <= 2.5\ngini = 0.153\nsamples = 12\nvalue = [11, 1]"] ;
489 -> 501 ;
502 [label="gini = 0.0\nsamples = 6\nvalue = [6, 0]"] ;
501 -> 502 ;
503 [label="gini = 0.278\nsamples = 6\nvalue = [5, 1]"] ;
501 -> 503 ;
504 [label="gini = 0.0\nsamples = 53\nvalue = [53, 0]"] ;
488 -> 504 ;
505 [label="X[1] <= 1.415\ngini = 0.153\nsamples = 12\nvalue = [11, 1]"] ;
487 -> 505 ;
506 [label="gini = 0.0\nsamples = 10\nvalue = [10, 0]"] ;
505 -> 506 ;
507 [label="X[1] <= 1.425\ngini = 0.5\nsamples = 2\nvalue = [1, 1]"] ;
505 -> 507 ;
508 [label="gini = 0.0\nsamples = 1\nvalue = [0, 1]"] ;
507 -> 508 ;
509 [label="gini = 0.0\nsamples = 1\nvalue = [1, 0]"] ;
507 -> 509 ;
510 [label="X[0] <= 4.5\ngini = 0.004\nsamples = 994\nvalue = [992, 2]"] ;
436 -> 510 ;
511 [label="gini = 0.0\nsamples = 653\nvalue = [653, 0]"] ;
510 -> 511 ;
512 [label="X[1] <= 1.635\ngini = 0.012\nsamples = 341\nvalue = [339, 2]"] ;
510 -> 512 ;
513 [label="X[1] <= 1.625\ngini = 0.018\nsamples = 225\nvalue = [223, 2]"] ;
512 -> 513 ;
514 [label="X[1] <= 1.555\ngini = 0.01\nsamples = 206\nvalue = [205, 1]"] ;
513 -> 514 ;
515 [label="gini = 0.0\nsamples = 112\nvalue = [112, 0]"] ;
514 -> 515 ;
516 [label="X[1] <= 1.565\ngini = 0.021\nsamples = 94\nvalue = [93, 1]"] ;
514 -> 516 ;
517 [label="X[0] <= 5.5\ngini = 0.219\nsamples = 8\nvalue = [7, 1]"] ;
516 -> 517 ;
518 [label="gini = 0.0\nsamples = 4\nvalue = [4, 0]"] ;
517 -> 518 ;
519 [label="X[0] <= 6.5\ngini = 0.375\nsamples = 4\nvalue = [3, 1]"] ;
517 -> 519 ;
520 [label="gini = 0.444\nsamples = 3\nvalue = [2, 1]"] ;
519 -> 520 ;
521 [label="gini = 0.0\nsamples = 1\nvalue = [1, 0]"] ;
519 -> 521 ;
522 [label="gini = 0.0\nsamples = 86\nvalue = [86, 0]"] ;
516 -> 522 ;
523 [label="X[0] <= 5.5\ngini = 0.1\nsamples = 19\nvalue = [18, 1]"] ;
513 -> 523 ;
524 [label="gini = 0.278\nsamples = 6\nvalue = [5, 1]"] ;
523 -> 524 ;
525 [label="gini = 0.0\nsamples = 13\nvalue = [13, 0]"] ;
523 -> 525 ;
526 [label="gini = 0.0\nsamples = 116\nvalue = [116, 0]"] ;
512 -> 526 ;
527 [label="X[1] <= 1.735\ngini = 0.029\nsamples = 404\nvalue = [398, 6]"] ;
435 -> 527 ;
528 [label="X[0] <= 3.5\ngini = 0.061\nsamples = 128\nvalue = [124, 4]"] ;
527 -> 528 ;
529 [label="X[1] <= 1.725\ngini = 0.029\nsamples = 69\nvalue = [68, 1]"] ;
528 -> 529 ;
530 [label="X[0] <= 2.5\ngini = 0.111\nsamples = 17\nvalue = [16, 1]"] ;
529 -> 530 ;
531 [label="gini = 0.133\nsamples = 14\nvalue = [13, 1]"] ;
530 -> 531 ;
532 [label="gini = 0.0\nsamples = 3\nvalue = [3, 0]"] ;
530 -> 532 ;
533 [label="gini = 0.0\nsamples = 52\nvalue = [52, 0]"] ;
529 -> 533 ;
534 [label="X[1] <= 1.725\ngini = 0.097\nsamples = 59\nvalue = [56, 3]"] ;
528 -> 534 ;
535 [label="gini = 0.0\nsamples = 16\nvalue = [16, 0]"] ;
534 -> 535 ;
536 [label="X[0] <= 5.5\ngini = 0.13\nsamples = 43\nvalue = [40, 3]"] ;
534 -> 536 ;
537 [label="X[0] <= 4.5\ngini = 0.111\nsamples = 17\nvalue = [16, 1]"] ;
536 -> 537 ;
538 [label="gini = 0.142\nsamples = 13\nvalue = [12, 1]"] ;
537 -> 538 ;
539 [label="gini = 0.0\nsamples = 4\nvalue = [4, 0]"] ;
537 -> 539 ;
540 [label="X[0] <= 6.5\ngini = 0.142\nsamples = 26\nvalue = [24, 2]"] ;
536 -> 540 ;
541 [label="gini = 0.142\nsamples = 13\nvalue = [12, 1]"] ;
540 -> 541 ;
542 [label="gini = 0.142\nsamples = 13\nvalue = [12, 1]"] ;
540 -> 542 ;
543 [label="X[0] <= 5.5\ngini = 0.014\nsamples = 276\nvalue = [274, 2]"] ;
527 -> 543 ;
544 [label="X[0] <= 4.5\ngini = 0.019\nsamples = 214\nvalue = [212, 2]"] ;
543 -> 544 ;
545 [label="X[1] <= 1.785\ngini = 0.012\nsamples = 169\nvalue = [168, 1]"] ;
544 -> 545 ;
546 [label="gini = 0.0\nsamples = 98\nvalue = [98, 0]"] ;
545 -> 546 ;
547 [label="X[0] <= 2.5\ngini = 0.028\nsamples = 71\nvalue = [70, 1]"] ;
545 -> 547 ;
548 [label="gini = 0.053\nsamples = 37\nvalue = [36, 1]"] ;
547 -> 548 ;
549 [label="gini = 0.0\nsamples = 34\nvalue = [34, 0]"] ;
547 -> 549 ;
550 [label="X[1] <= 1.77\ngini = 0.043\nsamples = 45\nvalue = [44, 1]"] ;
544 -> 550 ;
551 [label="X[1] <= 1.755\ngini = 0.1\nsamples = 19\nvalue = [18, 1]"] ;
550 -> 551 ;
552 [label="gini = 0.0\nsamples = 5\nvalue = [5, 0]"] ;
551 -> 552 ;
553 [label="gini = 0.133\nsamples = 14\nvalue = [13, 1]"] ;
551 -> 553 ;
554 [label="gini = 0.0\nsamples = 26\nvalue = [26, 0]"] ;
550 -> 554 ;
555 [label="gini = 0.0\nsamples = 62\nvalue = [62, 0]"] ;
543 -> 555 ;
556 [label="X[0] <= 2.5\ngini = 0.003\nsamples = 700\nvalue = [699, 1]"] ;
434 -> 556 ;
557 [label="X[1] <= 1.835\ngini = 0.008\nsamples = 262\nvalue = [261, 1]"] ;
556 -> 557 ;
558 [label="X[1] <= 1.825\ngini = 0.014\nsamples = 140\nvalue = [139, 1]"] ;
557 -> 558 ;
559 [label="gini = 0.0\nsamples = 79\nvalue = [79, 0]"] ;
558 -> 559 ;
560 [label="gini = 0.032\nsamples = 61\nvalue = [60, 1]"] ;
558 -> 560 ;
561 [label="gini = 0.0\nsamples = 122\nvalue = [122, 0]"] ;
557 -> 561 ;
562 [label="gini = 0.0\nsamples = 438\nvalue = [438, 0]"] ;
556 -> 562 ;
563 [label="X[1] <= 2.025\ngini = 0.018\nsamples = 6738\nvalue = [6677, 61]"] ;
433 -> 563 ;
564 [label="X[1] <= 2.015\ngini = 0.034\nsamples = 996\nvalue = [979, 17]"] ;
563 -> 564 ;
565 [label="X[1] <= 1.945\ngini = 0.028\nsamples = 852\nvalue = [840, 12]"] ;
564 -> 565 ;
566 [label="X[1] <= 1.925\ngini = 0.046\nsamples = 342\nvalue = [334, 8]"] ;
565 -> 566 ;
567 [label="X[1] <= 1.885\ngini = 0.029\nsamples = 207\nvalue = [204, 3]"] ;
566 -> 567 ;
568 [label="X[0] <= 3.5\ngini = 0.078\nsamples = 49\nvalue = [47, 2]"] ;
567 -> 568 ;
569 [label="X[0] <= 2.5\ngini = 0.153\nsamples = 24\nvalue = [22, 2]"] ;
568 -> 569 ;
570 [label="gini = 0.0\nsamples = 15\nvalue = [15, 0]"] ;
569 -> 570 ;
571 [label="gini = 0.346\nsamples = 9\nvalue = [7, 2]"] ;
569 -> 571 ;
572 [label="gini = 0.0\nsamples = 25\nvalue = [25, 0]"] ;
568 -> 572 ;
573 [label="X[1] <= 1.905\ngini = 0.013\nsamples = 158\nvalue = [157, 1]"] ;
567 -> 573 ;
574 [label="gini = 0.0\nsamples = 100\nvalue = [100, 0]"] ;
573 -> 574 ;
575 [label="X[0] <= 2.5\ngini = 0.034\nsamples = 58\nvalue = [57, 1]"] ;
573 -> 575 ;
576 [label="gini = 0.0\nsamples = 25\nvalue = [25, 0]"] ;
575 -> 576 ;
577 [label="X[0] <= 3.5\ngini = 0.059\nsamples = 33\nvalue = [32, 1]"] ;
575 -> 577 ;
578 [label="X[1] <= 1.915\ngini = 0.18\nsamples = 10\nvalue = [9, 1]"] ;
577 -> 578 ;
579 [label="gini = 0.32\nsamples = 5\nvalue = [4, 1]"] ;
578 -> 579 ;
580 [label="gini = 0.0\nsamples = 5\nvalue = [5, 0]"] ;
578 -> 580 ;
581 [label="gini = 0.0\nsamples = 23\nvalue = [23, 0]"] ;
577 -> 581 ;
582 [label="X[0] <= 5.5\ngini = 0.071\nsamples = 135\nvalue = [130, 5]"] ;
566 -> 582 ;
583 [label="X[1] <= 1.935\ngini = 0.056\nsamples = 104\nvalue = [101, 3]"] ;
582 -> 583 ;
584 [label="X[0] <= 3.5\ngini = 0.037\nsamples = 53\nvalue = [52, 1]"] ;
583 -> 584 ;
585 [label="gini = 0.0\nsamples = 42\nvalue = [42, 0]"] ;
584 -> 585 ;
586 [label="X[0] <= 4.5\ngini = 0.165\nsamples = 11\nvalue = [10, 1]"] ;
584 -> 586 ;
587 [label="gini = 0.198\nsamples = 9\nvalue = [8, 1]"] ;
586 -> 587 ;
588 [label="gini = 0.0\nsamples = 2\nvalue = [2, 0]"] ;
586 -> 588 ;
589 [label="X[0] <= 2.5\ngini = 0.075\nsamples = 51\nvalue = [49, 2]"] ;
583 -> 589 ;
590 [label="gini = 0.147\nsamples = 25\nvalue = [23, 2]"] ;
589 -> 590 ;
591 [label="gini = 0.0\nsamples = 26\nvalue = [26, 0]"] ;
589 -> 591 ;
592 [label="X[0] <= 6.5\ngini = 0.121\nsamples = 31\nvalue = [29, 2]"] ;
582 -> 592 ;
593 [label="X[1] <= 1.935\ngini = 0.231\nsamples = 15\nvalue = [13, 2]"] ;
592 -> 593 ;
594 [label="gini = 0.245\nsamples = 7\nvalue = [6, 1]"] ;
593 -> 594 ;
595 [label="gini = 0.219\nsamples = 8\nvalue = [7, 1]"] ;
593 -> 595 ;
596 [label="gini = 0.0\nsamples = 16\nvalue = [16, 0]"] ;
592 -> 596 ;
597 [label="X[1] <= 1.995\ngini = 0.016\nsamples = 510\nvalue = [506, 4]"] ;
565 -> 597 ;
598 [label="X[1] <= 1.955\ngini = 0.006\nsamples = 336\nvalue = [335, 1]"] ;
597 -> 598 ;
599 [label="X[0] <= 2.5\ngini = 0.028\nsamples = 70\nvalue = [69, 1]"] ;
598 -> 599 ;
600 [label="gini = 0.051\nsamples = 38\nvalue = [37, 1]"] ;
599 -> 600 ;
601 [label="gini = 0.0\nsamples = 32\nvalue = [32, 0]"] ;
599 -> 601 ;
602 [label="gini = 0.0\nsamples = 266\nvalue = [266, 0]"] ;
598 -> 602 ;
603 [label="X[0] <= 2.5\ngini = 0.034\nsamples = 174\nvalue = [171, 3]"] ;
597 -> 603 ;
604 [label="X[1] <= 2.005\ngini = 0.048\nsamples = 82\nvalue = [80, 2]"] ;
603 -> 604 ;
605 [label="gini = 0.0\nsamples = 12\nvalue = [12, 0]"] ;
604 -> 605 ;
606 [label="gini = 0.056\nsamples = 70\nvalue = [68, 2]"] ;
604 -> 606 ;
607 [label="X[1] <= 2.005\ngini = 0.022\nsamples = 92\nvalue = [91, 1]"] ;
603 -> 607 ;
608 [label="X[0] <= 5.5\ngini = 0.08\nsamples = 24\nvalue = [23, 1]"] ;
607 -> 608 ;
609 [label="gini = 0.0\nsamples = 16\nvalue = [16, 0]"] ;
608 -> 609 ;
610 [label="X[0] <= 6.5\ngini = 0.219\nsamples = 8\nvalue = [7, 1]"] ;
608 -> 610 ;
611 [label="gini = 0.32\nsamples = 5\nvalue = [4, 1]"] ;
610 -> 611 ;
612 [label="gini = 0.0\nsamples = 3\nvalue = [3, 0]"] ;
610 -> 612 ;
613 [label="gini = 0.0\nsamples = 68\nvalue = [68, 0]"] ;
607 -> 613 ;
614 [label="X[0] <= 4.5\ngini = 0.067\nsamples = 144\nvalue = [139, 5]"] ;
564 -> 614 ;
615 [label="X[0] <= 2.5\ngini = 0.042\nsamples = 93\nvalue = [91, 2]"] ;
614 -> 615 ;
616 [label="gini = 0.058\nsamples = 67\nvalue = [65, 2]"] ;
615 -> 616 ;
617 [label="gini = 0.0\nsamples = 26\nvalue = [26, 0]"] ;
615 -> 617 ;
618 [label="X[0] <= 5.5\ngini = 0.111\nsamples = 51\nvalue = [48, 3]"] ;
614 -> 618 ;
619 [label="gini = 0.165\nsamples = 22\nvalue = [20, 2]"] ;
618 -> 619 ;
620 [label="X[0] <= 6.5\ngini = 0.067\nsamples = 29\nvalue = [28, 1]"] ;
618 -> 620 ;
621 [label="gini = 0.0\nsamples = 10\nvalue = [10, 0]"] ;
620 -> 621 ;
622 [label="gini = 0.1\nsamples = 19\nvalue = [18, 1]"] ;
620 -> 622 ;
623 [label="X[0] <= 3.5\ngini = 0.015\nsamples = 5742\nvalue = [5698, 44]"] ;
563 -> 623 ;
624 [label="X[1] <= 2.195\ngini = 0.019\nsamples = 3252\nvalue = [3221, 31]"] ;
623 -> 624 ;
625 [label="X[1] <= 2.105\ngini = 0.013\nsamples = 1366\nvalue = [1357, 9]"] ;
624 -> 625 ;
626 [label="X[1] <= 2.045\ngini = 0.019\nsamples = 531\nvalue = [526, 5]"] ;
625 -> 626 ;
627 [label="gini = 0.0\nsamples = 133\nvalue = [133, 0]"] ;
626 -> 627 ;
628 [label="X[1] <= 2.055\ngini = 0.025\nsamples = 398\nvalue = [393, 5]"] ;
626 -> 628 ;
629 [label="X[0] <= 2.5\ngini = 0.043\nsamples = 92\nvalue = [90, 2]"] ;
628 -> 629 ;
630 [label="gini = 0.033\nsamples = 60\nvalue = [59, 1]"] ;
629 -> 630 ;
631 [label="gini = 0.061\nsamples = 32\nvalue = [31, 1]"] ;
629 -> 631 ;
632 [label="X[1] <= 2.095\ngini = 0.019\nsamples = 306\nvalue = [303, 3]"] ;
628 -> 632 ;
633 [label="X[0] <= 2.5\ngini = 0.01\nsamples = 197\nvalue = [196, 1]"] ;
632 -> 633 ;
634 [label="gini = 0.0\nsamples = 154\nvalue = [154, 0]"] ;
633 -> 634 ;
635 [label="X[1] <= 2.075\ngini = 0.045\nsamples = 43\nvalue = [42, 1]"] ;
633 -> 635 ;
636 [label="X[1] <= 2.065\ngini = 0.111\nsamples = 17\nvalue = [16, 1]"] ;
635 -> 636 ;
637 [label="gini = 0.0\nsamples = 8\nvalue = [8, 0]"] ;
636 -> 637 ;
638 [label="gini = 0.198\nsamples = 9\nvalue = [8, 1]"] ;
636 -> 638 ;
639 [label="gini = 0.0\nsamples = 26\nvalue = [26, 0]"] ;
635 -> 639 ;
640 [label="X[0] <= 2.5\ngini = 0.036\nsamples = 109\nvalue = [107, 2]"] ;
632 -> 640 ;
641 [label="gini = 0.053\nsamples = 74\nvalue = [72, 2]"] ;
640 -> 641 ;
642 [label="gini = 0.0\nsamples = 35\nvalue = [35, 0]"] ;
640 -> 642 ;
643 [label="X[1] <= 2.165\ngini = 0.01\nsamples = 835\nvalue = [831, 4]"] ;
625 -> 643 ;
644 [label="X[1] <= 2.135\ngini = 0.005\nsamples = 411\nvalue = [410, 1]"] ;
643 -> 644 ;
645 [label="X[1] <= 2.125\ngini = 0.009\nsamples = 222\nvalue = [221, 1]"] ;
644 -> 645 ;
646 [label="gini = 0.0\nsamples = 135\nvalue = [135, 0]"] ;
645 -> 646 ;
647 [label="X[0] <= 2.5\ngini = 0.023\nsamples = 87\nvalue = [86, 1]"] ;
645 -> 647 ;
648 [label="gini = 0.034\nsamples = 58\nvalue = [57, 1]"] ;
647 -> 648 ;
649 [label="gini = 0.0\nsamples = 29\nvalue = [29, 0]"] ;
647 -> 649 ;
650 [label="gini = 0.0\nsamples = 189\nvalue = [189, 0]"] ;
644 -> 650 ;
651 [label="X[1] <= 2.175\ngini = 0.014\nsamples = 424\nvalue = [421, 3]"] ;
643 -> 651 ;
652 [label="X[0] <= 2.5\ngini = 0.039\nsamples = 100\nvalue = [98, 2]"] ;
651 -> 652 ;
653 [label="gini = 0.024\nsamples = 84\nvalue = [83, 1]"] ;
652 -> 653 ;
654 [label="gini = 0.117\nsamples = 16\nvalue = [15, 1]"] ;
652 -> 654 ;
655 [label="X[0] <= 2.5\ngini = 0.006\nsamples = 324\nvalue = [323, 1]"] ;
651 -> 655 ;
656 [label="gini = 0.0\nsamples = 188\nvalue = [188, 0]"] ;
655 -> 656 ;
657 [label="X[1] <= 2.185\ngini = 0.015\nsamples = 136\nvalue = [135, 1]"] ;
655 -> 657 ;
658 [label="gini = 0.017\nsamples = 114\nvalue = [113, 1]"] ;
657 -> 658 ;
659 [label="gini = 0.0\nsamples = 22\nvalue = [22, 0]"] ;
657 -> 659 ;
660 [label="X[1] <= 2.215\ngini = 0.023\nsamples = 1886\nvalue = [1864, 22]"] ;
624 -> 660 ;
661 [label="X[0] <= 2.5\ngini = 0.046\nsamples = 342\nvalue = [334, 8]"] ;
660 -> 661 ;
662 [label="X[1] <= 2.205\ngini = 0.064\nsamples = 241\nvalue = [233, 8]"] ;
661 -> 662 ;
663 [label="gini = 0.071\nsamples = 108\nvalue = [104, 4]"] ;
662 -> 663 ;
664 [label="gini = 0.058\nsamples = 133\nvalue = [129, 4]"] ;
662 -> 664 ;
665 [label="gini = 0.0\nsamples = 101\nvalue = [101, 0]"] ;
661 -> 665 ;
666 [label="X[1] <= 2.245\ngini = 0.018\nsamples = 1544\nvalue = [1530, 14]"] ;
660 -> 666 ;
667 [label="X[1] <= 2.235\ngini = 0.005\nsamples = 378\nvalue = [377, 1]"] ;
666 -> 667 ;
668 [label="gini = 0.0\nsamples = 184\nvalue = [184, 0]"] ;
667 -> 668 ;
669 [label="X[0] <= 2.5\ngini = 0.01\nsamples = 194\nvalue = [193, 1]"] ;
667 -> 669 ;
670 [label="gini = 0.016\nsamples = 128\nvalue = [127, 1]"] ;
669 -> 670 ;
671 [label="gini = 0.0\nsamples = 66\nvalue = [66, 0]"] ;
669 -> 671 ;
672 [label="X[1] <= 2.285\ngini = 0.022\nsamples = 1166\nvalue = [1153, 13]"] ;
666 -> 672 ;
673 [label="X[1] <= 2.275\ngini = 0.052\nsamples = 261\nvalue = [254, 7]"] ;
672 -> 673 ;
674 [label="X[1] <= 2.265\ngini = 0.041\nsamples = 241\nvalue = [236, 5]"] ;
673 -> 674 ;
675 [label="X[0] <= 2.5\ngini = 0.05\nsamples = 193\nvalue = [188, 5]"] ;
674 -> 675 ;
676 [label="X[1] <= 2.255\ngini = 0.058\nsamples = 135\nvalue = [131, 4]"] ;
675 -> 676 ;
677 [label="gini = 0.063\nsamples = 61\nvalue = [59, 2]"] ;
676 -> 677 ;
678 [label="gini = 0.053\nsamples = 74\nvalue = [72, 2]"] ;
676 -> 678 ;
679 [label="X[1] <= 2.255\ngini = 0.034\nsamples = 58\nvalue = [57, 1]"] ;
675 -> 679 ;
680 [label="gini = 0.0\nsamples = 22\nvalue = [22, 0]"] ;
679 -> 680 ;
681 [label="gini = 0.054\nsamples = 36\nvalue = [35, 1]"] ;
679 -> 681 ;
682 [label="gini = 0.0\nsamples = 48\nvalue = [48, 0]"] ;
674 -> 682 ;
683 [label="X[0] <= 2.5\ngini = 0.18\nsamples = 20\nvalue = [18, 2]"] ;
673 -> 683 ;
684 [label="gini = 0.142\nsamples = 13\nvalue = [12, 1]"] ;
683 -> 684 ;
685 [label="gini = 0.245\nsamples = 7\nvalue = [6, 1]"] ;
683 -> 685 ;
686 [label="X[1] <= 2.315\ngini = 0.013\nsamples = 905\nvalue = [899, 6]"] ;
672 -> 686 ;
687 [label="gini = 0.0\nsamples = 203\nvalue = [203, 0]"] ;
686 -> 687 ;
688 [label="X[1] <= 2.355\ngini = 0.017\nsamples = 702\nvalue = [696, 6]"] ;
686 -> 688 ;
689 [label="X[1] <= 2.345\ngini = 0.031\nsamples = 253\nvalue = [249, 4]"] ;
688 -> 689 ;
690 [label="X[1] <= 2.325\ngini = 0.027\nsamples = 216\nvalue = [213, 3]"] ;
689 -> 690 ;
691 [label="X[0] <= 2.5\ngini = 0.043\nsamples = 91\nvalue = [89, 2]"] ;
690 -> 691 ;
692 [label="gini = 0.028\nsamples = 71\nvalue = [70, 1]"] ;
691 -> 692 ;
693 [label="gini = 0.095\nsamples = 20\nvalue = [19, 1]"] ;
691 -> 693 ;
694 [label="X[0] <= 2.5\ngini = 0.016\nsamples = 125\nvalue = [124, 1]"] ;
690 -> 694 ;
695 [label="X[1] <= 2.335\ngini = 0.024\nsamples = 83\nvalue = [82, 1]"] ;
694 -> 695 ;
696 [label="gini = 0.037\nsamples = 53\nvalue = [52, 1]"] ;
695 -> 696 ;
697 [label="gini = 0.0\nsamples = 30\nvalue = [30, 0]"] ;
695 -> 697 ;
698 [label="gini = 0.0\nsamples = 42\nvalue = [42, 0]"] ;
694 -> 698 ;
699 [label="X[0] <= 2.5\ngini = 0.053\nsamples = 37\nvalue = [36, 1]"] ;
689 -> 699 ;
700 [label="gini = 0.057\nsamples = 34\nvalue = [33, 1]"] ;
699 -> 700 ;
701 [label="gini = 0.0\nsamples = 3\nvalue = [3, 0]"] ;
699 -> 701 ;
702 [label="X[1] <= 2.375\ngini = 0.009\nsamples = 449\nvalue = [447, 2]"] ;
688 -> 702 ;
703 [label="gini = 0.0\nsamples = 194\nvalue = [194, 0]"] ;
702 -> 703 ;
704 [label="X[1] <= 2.385\ngini = 0.016\nsamples = 255\nvalue = [253, 2]"] ;
702 -> 704 ;
705 [label="X[0] <= 2.5\ngini = 0.021\nsamples = 185\nvalue = [183, 2]"] ;
704 -> 705 ;
706 [label="gini = 0.016\nsamples = 126\nvalue = [125, 1]"] ;
705 -> 706 ;
707 [label="gini = 0.033\nsamples = 59\nvalue = [58, 1]"] ;
705 -> 707 ;
708 [label="gini = 0.0\nsamples = 70\nvalue = [70, 0]"] ;
704 -> 708 ;
709 [label="X[1] <= 2.125\ngini = 0.01\nsamples = 2490\nvalue = [2477, 13]"] ;
623 -> 709 ;
710 [label="gini = 0.0\nsamples = 417\nvalue = [417, 0]"] ;
709 -> 710 ;
711 [label="X[1] <= 2.135\ngini = 0.012\nsamples = 2073\nvalue = [2060, 13]"] ;
709 -> 711 ;
712 [label="X[0] <= 4.5\ngini = 0.046\nsamples = 85\nvalue = [83, 2]"] ;
711 -> 712 ;
713 [label="gini = 0.0\nsamples = 26\nvalue = [26, 0]"] ;
712 -> 713 ;
714 [label="X[0] <= 6.5\ngini = 0.065\nsamples = 59\nvalue = [57, 2]"] ;
712 -> 714 ;
715 [label="X[0] <= 5.5\ngini = 0.081\nsamples = 47\nvalue = [45, 2]"] ;
714 -> 715 ;
716 [label="gini = 0.08\nsamples = 24\nvalue = [23, 1]"] ;
715 -> 716 ;
717 [label="gini = 0.083\nsamples = 23\nvalue = [22, 1]"] ;
715 -> 717 ;
718 [label="gini = 0.0\nsamples = 12\nvalue = [12, 0]"] ;
714 -> 718 ;
719 [label="X[1] <= 2.335\ngini = 0.011\nsamples = 1988\nvalue = [1977, 11]"] ;
711 -> 719 ;
720 [label="X[0] <= 4.5\ngini = 0.009\nsamples = 1496\nvalue = [1489, 7]"] ;
719 -> 720 ;
721 [label="gini = 0.0\nsamples = 422\nvalue = [422, 0]"] ;
720 -> 721 ;
722 [label="X[1] <= 2.205\ngini = 0.013\nsamples = 1074\nvalue = [1067, 7]"] ;
720 -> 722 ;
723 [label="X[0] <= 5.5\ngini = 0.021\nsamples = 383\nvalue = [379, 4]"] ;
722 -> 723 ;
724 [label="X[1] <= 2.165\ngini = 0.032\nsamples = 122\nvalue = [120, 2]"] ;
723 -> 724 ;
725 [label="X[1] <= 2.155\ngini = 0.074\nsamples = 26\nvalue = [25, 1]"] ;
724 -> 725 ;
726 [label="gini = 0.0\nsamples = 12\nvalue = [12, 0]"] ;
725 -> 726 ;
727 [label="gini = 0.133\nsamples = 14\nvalue = [13, 1]"] ;
725 -> 727 ;
728 [label="X[1] <= 2.185\ngini = 0.021\nsamples = 96\nvalue = [95, 1]"] ;
724 -> 728 ;
729 [label="X[1] <= 2.175\ngini = 0.027\nsamples = 72\nvalue = [71, 1]"] ;
728 -> 729 ;
730 [label="gini = 0.0\nsamples = 17\nvalue = [17, 0]"] ;
729 -> 730 ;
731 [label="gini = 0.036\nsamples = 55\nvalue = [54, 1]"] ;
729 -> 731 ;
732 [label="gini = 0.0\nsamples = 24\nvalue = [24, 0]"] ;
728 -> 732 ;
733 [label="X[0] <= 6.5\ngini = 0.015\nsamples = 261\nvalue = [259, 2]"] ;
723 -> 733 ;
734 [label="gini = 0.0\nsamples = 137\nvalue = [137, 0]"] ;
733 -> 734 ;
735 [label="X[1] <= 2.195\ngini = 0.032\nsamples = 124\nvalue = [122, 2]"] ;
733 -> 735 ;
736 [label="X[1] <= 2.175\ngini = 0.02\nsamples = 99\nvalue = [98, 1]"] ;
735 -> 736 ;
737 [label="gini = 0.0\nsamples = 37\nvalue = [37, 0]"] ;
736 -> 737 ;
738 [label="X[1] <= 2.185\ngini = 0.032\nsamples = 62\nvalue = [61, 1]"] ;
736 -> 738 ;
739 [label="gini = 0.042\nsamples = 47\nvalue = [46, 1]"] ;
738 -> 739 ;
740 [label="gini = 0.0\nsamples = 15\nvalue = [15, 0]"] ;
738 -> 740 ;
741 [label="gini = 0.077\nsamples = 25\nvalue = [24, 1]"] ;
735 -> 741 ;
742 [label="X[0] <= 5.5\ngini = 0.009\nsamples = 691\nvalue = [688, 3]"] ;
722 -> 742 ;
743 [label="gini = 0.0\nsamples = 260\nvalue = [260, 0]"] ;
742 -> 743 ;
744 [label="X[1] <= 2.235\ngini = 0.014\nsamples = 431\nvalue = [428, 3]"] ;
742 -> 744 ;
745 [label="gini = 0.0\nsamples = 115\nvalue = [115, 0]"] ;
744 -> 745 ;
746 [label="X[1] <= 2.305\ngini = 0.019\nsamples = 316\nvalue = [313, 3]"] ;
744 -> 746 ;
747 [label="X[1] <= 2.285\ngini = 0.027\nsamples = 217\nvalue = [214, 3]"] ;
746 -> 747 ;
748 [label="X[1] <= 2.245\ngini = 0.014\nsamples = 144\nvalue = [143, 1]"] ;
747 -> 748 ;
749 [label="X[0] <= 6.5\ngini = 0.039\nsamples = 50\nvalue = [49, 1]"] ;
748 -> 749 ;
750 [label="gini = 0.062\nsamples = 31\nvalue = [30, 1]"] ;
749 -> 750 ;
751 [label="gini = 0.0\nsamples = 19\nvalue = [19, 0]"] ;
749 -> 751 ;
752 [label="gini = 0.0\nsamples = 94\nvalue = [94, 0]"] ;
748 -> 752 ;
753 [label="X[1] <= 2.295\ngini = 0.053\nsamples = 73\nvalue = [71, 2]"] ;
747 -> 753 ;
754 [label="X[0] <= 6.5\ngini = 0.048\nsamples = 41\nvalue = [40, 1]"] ;
753 -> 754 ;
755 [label="gini = 0.0\nsamples = 24\nvalue = [24, 0]"] ;
754 -> 755 ;
756 [label="gini = 0.111\nsamples = 17\nvalue = [16, 1]"] ;
754 -> 756 ;
757 [label="X[0] <= 6.5\ngini = 0.061\nsamples = 32\nvalue = [31, 1]"] ;
753 -> 757 ;
758 [label="gini = 0.153\nsamples = 12\nvalue = [11, 1]"] ;
757 -> 758 ;
759 [label="gini = 0.0\nsamples = 20\nvalue = [20, 0]"] ;
757 -> 759 ;
760 [label="gini = 0.0\nsamples = 99\nvalue = [99, 0]"] ;
746 -> 760 ;
761 [label="X[0] <= 6.5\ngini = 0.016\nsamples = 492\nvalue = [488, 4]"] ;
719 -> 761 ;
762 [label="X[1] <= 2.345\ngini = 0.023\nsamples = 348\nvalue = [344, 4]"] ;
761 -> 762 ;
763 [label="X[0] <= 5.5\ngini = 0.074\nsamples = 26\nvalue = [25, 1]"] ;
762 -> 763 ;
764 [label="gini = 0.0\nsamples = 12\nvalue = [12, 0]"] ;
763 -> 764 ;
765 [label="gini = 0.133\nsamples = 14\nvalue = [13, 1]"] ;
763 -> 765 ;
766 [label="X[0] <= 5.5\ngini = 0.018\nsamples = 322\nvalue = [319, 3]"] ;
762 -> 766 ;
767 [label="X[1] <= 2.355\ngini = 0.028\nsamples = 211\nvalue = [208, 3]"] ;
766 -> 767 ;
768 [label="gini = 0.0\nsamples = 19\nvalue = [19, 0]"] ;
767 -> 768 ;
769 [label="X[1] <= 2.385\ngini = 0.031\nsamples = 192\nvalue = [189, 3]"] ;
767 -> 769 ;
770 [label="X[0] <= 4.5\ngini = 0.034\nsamples = 173\nvalue = [170, 3]"] ;
769 -> 770 ;
771 [label="X[1] <= 2.365\ngini = 0.044\nsamples = 88\nvalue = [86, 2]"] ;
770 -> 771 ;
772 [label="gini = 0.069\nsamples = 28\nvalue = [27, 1]"] ;
771 -> 772 ;
773 [label="X[1] <= 2.375\ngini = 0.033\nsamples = 60\nvalue = [59, 1]"] ;
771 -> 773 ;
774 [label="gini = 0.0\nsamples = 14\nvalue = [14, 0]"] ;
773 -> 774 ;
775 [label="gini = 0.043\nsamples = 46\nvalue = [45, 1]"] ;
773 -> 775 ;
776 [label="X[1] <= 2.365\ngini = 0.023\nsamples = 85\nvalue = [84, 1]"] ;
770 -> 776 ;
777 [label="gini = 0.0\nsamples = 36\nvalue = [36, 0]"] ;
776 -> 777 ;
778 [label="X[1] <= 2.375\ngini = 0.04\nsamples = 49\nvalue = [48, 1]"] ;
776 -> 778 ;
779 [label="gini = 0.069\nsamples = 28\nvalue = [27, 1]"] ;
778 -> 779 ;
780 [label="gini = 0.0\nsamples = 21\nvalue = [21, 0]"] ;
778 -> 780 ;
781 [label="gini = 0.0\nsamples = 19\nvalue = [19, 0]"] ;
769 -> 781 ;
782 [label="gini = 0.0\nsamples = 111\nvalue = [111, 0]"] ;
766 -> 782 ;
783 [label="gini = 0.0\nsamples = 144\nvalue = [144, 0]"] ;
761 -> 783 ;
784 [label="X[0] <= 3.5\ngini = 0.064\nsamples = 182\nvalue = [176, 6]"] ;
398 -> 784 ;
785 [label="X[0] <= 2.5\ngini = 0.035\nsamples = 113\nvalue = [111, 2]"] ;
784 -> 785 ;
786 [label="gini = 0.051\nsamples = 77\nvalue = [75, 2]"] ;
785 -> 786 ;
787 [label="gini = 0.0\nsamples = 36\nvalue = [36, 0]"] ;
785 -> 787 ;
788 [label="X[0] <= 6.5\ngini = 0.109\nsamples = 69\nvalue = [65, 4]"] ;
784 -> 788 ;
789 [label="X[0] <= 4.5\ngini = 0.135\nsamples = 55\nvalue = [51, 4]"] ;
788 -> 789 ;
790 [label="gini = 0.091\nsamples = 21\nvalue = [20, 1]"] ;
789 -> 790 ;
791 [label="X[0] <= 5.5\ngini = 0.161\nsamples = 34\nvalue = [31, 3]"] ;
789 -> 791 ;
792 [label="gini = 0.188\nsamples = 19\nvalue = [17, 2]"] ;
791 -> 792 ;
793 [label="gini = 0.124\nsamples = 15\nvalue = [14, 1]"] ;
791 -> 793 ;
794 [label="gini = 0.0\nsamples = 14\nvalue = [14, 0]"] ;
788 -> 794 ;
795 [label="X[1] <= 2.505\ngini = 0.011\nsamples = 9964\nvalue = [9910, 54]"] ;
397 -> 795 ;
796 [label="X[0] <= 4.5\ngini = 0.005\nsamples = 3376\nvalue = [3367, 9]"] ;
795 -> 796 ;
797 [label="X[0] <= 2.5\ngini = 0.007\nsamples = 2515\nvalue = [2506, 9]"] ;
796 -> 797 ;
798 [label="X[1] <= 2.475\ngini = 0.003\nsamples = 1567\nvalue = [1565, 2]"] ;
797 -> 798 ;
799 [label="X[1] <= 2.465\ngini = 0.004\nsamples = 1033\nvalue = [1031, 2]"] ;
798 -> 799 ;
800 [label="X[1] <= 2.435\ngini = 0.002\nsamples = 940\nvalue = [939, 1]"] ;
799 -> 800 ;
801 [label="X[1] <= 2.425\ngini = 0.005\nsamples = 388\nvalue = [387, 1]"] ;
800 -> 801 ;
802 [label="gini = 0.0\nsamples = 275\nvalue = [275, 0]"] ;
801 -> 802 ;
803 [label="gini = 0.018\nsamples = 113\nvalue = [112, 1]"] ;
801 -> 803 ;
804 [label="gini = 0.0\nsamples = 552\nvalue = [552, 0]"] ;
800 -> 804 ;
805 [label="gini = 0.021\nsamples = 93\nvalue = [92, 1]"] ;
799 -> 805 ;
806 [label="gini = 0.0\nsamples = 534\nvalue = [534, 0]"] ;
798 -> 806 ;
807 [label="X[0] <= 3.5\ngini = 0.015\nsamples = 948\nvalue = [941, 7]"] ;
797 -> 807 ;
808 [label="X[1] <= 2.445\ngini = 0.021\nsamples = 553\nvalue = [547, 6]"] ;
807 -> 808 ;
809 [label="X[1] <= 2.415\ngini = 0.04\nsamples = 197\nvalue = [193, 4]"] ;
808 -> 809 ;
810 [label="gini = 0.0\nsamples = 51\nvalue = [51, 0]"] ;
809 -> 810 ;
811 [label="X[1] <= 2.435\ngini = 0.053\nsamples = 146\nvalue = [142, 4]"] ;
809 -> 811 ;
812 [label="X[1] <= 2.425\ngini = 0.071\nsamples = 81\nvalue = [78, 3]"] ;
811 -> 812 ;
813 [label="gini = 0.049\nsamples = 40\nvalue = [39, 1]"] ;
812 -> 813 ;
814 [label="gini = 0.093\nsamples = 41\nvalue = [39, 2]"] ;
812 -> 814 ;
815 [label="gini = 0.03\nsamples = 65\nvalue = [64, 1]"] ;
811 -> 815 ;
816 [label="X[1] <= 2.485\ngini = 0.011\nsamples = 356\nvalue = [354, 2]"] ;
808 -> 816 ;
817 [label="X[1] <= 2.455\ngini = 0.019\nsamples = 213\nvalue = [211, 2]"] ;
816 -> 817 ;
818 [label="gini = 0.0\nsamples = 98\nvalue = [98, 0]"] ;
817 -> 818 ;
819 [label="X[1] <= 2.475\ngini = 0.034\nsamples = 115\nvalue = [113, 2]"] ;
817 -> 819 ;
820 [label="X[1] <= 2.465\ngini = 0.026\nsamples = 75\nvalue = [74, 1]"] ;
819 -> 820 ;
821 [label="gini = 0.042\nsamples = 47\nvalue = [46, 1]"] ;
820 -> 821 ;
822 [label="gini = 0.0\nsamples = 28\nvalue = [28, 0]"] ;
820 -> 822 ;
823 [label="gini = 0.049\nsamples = 40\nvalue = [39, 1]"] ;
819 -> 823 ;
824 [label="gini = 0.0\nsamples = 143\nvalue = [143, 0]"] ;
816 -> 824 ;
825 [label="X[1] <= 2.485\ngini = 0.005\nsamples = 395\nvalue = [394, 1]"] ;
807 -> 825 ;
826 [label="gini = 0.0\nsamples = 285\nvalue = [285, 0]"] ;
825 -> 826 ;
827 [label="X[1] <= 2.495\ngini = 0.018\nsamples = 110\nvalue = [109, 1]"] ;
825 -> 827 ;
828 [label="gini = 0.025\nsamples = 80\nvalue = [79, 1]"] ;
827 -> 828 ;
829 [label="gini = 0.0\nsamples = 30\nvalue = [30, 0]"] ;
827 -> 829 ;
830 [label="gini = 0.0\nsamples = 861\nvalue = [861, 0]"] ;
796 -> 830 ;
831 [label="X[0] <= 5.5\ngini = 0.014\nsamples = 6588\nvalue = [6543, 45]"] ;
795 -> 831 ;
832 [label="X[1] <= 2.605\ngini = 0.012\nsamples = 5518\nvalue = [5485, 33]"] ;
831 -> 832 ;
833 [label="X[0] <= 4.5\ngini = 0.016\nsamples = 2501\nvalue = [2481, 20]"] ;
832 -> 833 ;
834 [label="X[0] <= 2.5\ngini = 0.018\nsamples = 2198\nvalue = [2178, 20]"] ;
833 -> 834 ;
835 [label="X[1] <= 2.535\ngini = 0.019\nsamples = 1331\nvalue = [1318, 13]"] ;
834 -> 835 ;
836 [label="X[1] <= 2.525\ngini = 0.031\nsamples = 315\nvalue = [310, 5]"] ;
835 -> 836 ;
837 [label="X[1] <= 2.515\ngini = 0.026\nsamples = 229\nvalue = [226, 3]"] ;
836 -> 837 ;
838 [label="gini = 0.028\nsamples = 208\nvalue = [205, 3]"] ;
837 -> 838 ;
839 [label="gini = 0.0\nsamples = 21\nvalue = [21, 0]"] ;
837 -> 839 ;
840 [label="gini = 0.045\nsamples = 86\nvalue = [84, 2]"] ;
836 -> 840 ;
841 [label="X[1] <= 2.565\ngini = 0.016\nsamples = 1016\nvalue = [1008, 8]"] ;
835 -> 841 ;
842 [label="X[1] <= 2.545\ngini = 0.004\nsamples = 444\nvalue = [443, 1]"] ;
841 -> 842 ;
843 [label="gini = 0.01\nsamples = 206\nvalue = [205, 1]"] ;
842 -> 843 ;
844 [label="gini = 0.0\nsamples = 238\nvalue = [238, 0]"] ;
842 -> 844 ;
845 [label="X[1] <= 2.575\ngini = 0.024\nsamples = 572\nvalue = [565, 7]"] ;
841 -> 845 ;
846 [label="gini = 0.06\nsamples = 65\nvalue = [63, 2]"] ;
845 -> 846 ;
847 [label="X[1] <= 2.595\ngini = 0.02\nsamples = 507\nvalue = [502, 5]"] ;
845 -> 847 ;
848 [label="X[1] <= 2.585\ngini = 0.018\nsamples = 333\nvalue = [330, 3]"] ;
847 -> 848 ;
849 [label="gini = 0.016\nsamples = 121\nvalue = [120, 1]"] ;
848 -> 849 ;
850 [label="gini = 0.019\nsamples = 212\nvalue = [210, 2]"] ;
848 -> 850 ;
851 [label="gini = 0.023\nsamples = 174\nvalue = [172, 2]"] ;
847 -> 851 ;
852 [label="X[1] <= 2.535\ngini = 0.016\nsamples = 867\nvalue = [860, 7]"] ;
834 -> 852 ;
853 [label="gini = 0.0\nsamples = 203\nvalue = [203, 0]"] ;
852 -> 853 ;
854 [label="X[1] <= 2.565\ngini = 0.021\nsamples = 664\nvalue = [657, 7]"] ;
852 -> 854 ;
855 [label="X[0] <= 3.5\ngini = 0.036\nsamples = 221\nvalue = [217, 4]"] ;
854 -> 855 ;
856 [label="X[1] <= 2.555\ngini = 0.047\nsamples = 124\nvalue = [121, 3]"] ;
855 -> 856 ;
857 [label="X[1] <= 2.545\ngini = 0.064\nsamples = 90\nvalue = [87, 3]"] ;
856 -> 857 ;
858 [label="gini = 0.04\nsamples = 49\nvalue = [48, 1]"] ;
857 -> 858 ;
859 [label="gini = 0.093\nsamples = 41\nvalue = [39, 2]"] ;
857 -> 859 ;
860 [label="gini = 0.0\nsamples = 34\nvalue = [34, 0]"] ;
856 -> 860 ;
861 [label="X[1] <= 2.555\ngini = 0.02\nsamples = 97\nvalue = [96, 1]"] ;
855 -> 861 ;
862 [label="gini = 0.0\nsamples = 74\nvalue = [74, 0]"] ;
861 -> 862 ;
863 [label="gini = 0.083\nsamples = 23\nvalue = [22, 1]"] ;
861 -> 863 ;
864 [label="X[0] <= 3.5\ngini = 0.013\nsamples = 443\nvalue = [440, 3]"] ;
854 -> 864 ;
865 [label="X[1] <= 2.585\ngini = 0.008\nsamples = 240\nvalue = [239, 1]"] ;
864 -> 865 ;
866 [label="X[1] <= 2.575\ngini = 0.034\nsamples = 57\nvalue = [56, 1]"] ;
865 -> 866 ;
867 [label="gini = 0.0\nsamples = 18\nvalue = [18, 0]"] ;
866 -> 867 ;
868 [label="gini = 0.05\nsamples = 39\nvalue = [38, 1]"] ;
866 -> 868 ;
869 [label="gini = 0.0\nsamples = 183\nvalue = [183, 0]"] ;
865 -> 869 ;
870 [label="X[1] <= 2.585\ngini = 0.02\nsamples = 203\nvalue = [201, 2]"] ;
864 -> 870 ;
871 [label="gini = 0.0\nsamples = 51\nvalue = [51, 0]"] ;
870 -> 871 ;
872 [label="X[1] <= 2.595\ngini = 0.026\nsamples = 152\nvalue = [150, 2]"] ;
870 -> 872 ;
873 [label="gini = 0.028\nsamples = 71\nvalue = [70, 1]"] ;
872 -> 873 ;
874 [label="gini = 0.024\nsamples = 81\nvalue = [80, 1]"] ;
872 -> 874 ;
875 [label="gini = 0.0\nsamples = 303\nvalue = [303, 0]"] ;
833 -> 875 ;
876 [label="X[0] <= 2.5\ngini = 0.009\nsamples = 3017\nvalue = [3004, 13]"] ;
832 -> 876 ;
877 [label="X[1] <= 2.675\ngini = 0.006\nsamples = 1610\nvalue = [1605, 5]"] ;
876 -> 877 ;
878 [label="X[1] <= 2.625\ngini = 0.007\nsamples = 1354\nvalue = [1349, 5]"] ;
877 -> 878 ;
879 [label="X[1] <= 2.615\ngini = 0.005\nsamples = 403\nvalue = [402, 1]"] ;
878 -> 879 ;
880 [label="gini = 0.01\nsamples = 199\nvalue = [198, 1]"] ;
879 -> 880 ;
881 [label="gini = 0.0\nsamples = 204\nvalue = [204, 0]"] ;
879 -> 881 ;
882 [label="X[1] <= 2.635\ngini = 0.008\nsamples = 951\nvalue = [947, 4]"] ;
878 -> 882 ;
883 [label="gini = 0.015\nsamples = 131\nvalue = [130, 1]"] ;
882 -> 883 ;
884 [label="X[1] <= 2.655\ngini = 0.007\nsamples = 820\nvalue = [817, 3]"] ;
882 -> 884 ;
885 [label="X[1] <= 2.645\ngini = 0.009\nsamples = 457\nvalue = [455, 2]"] ;
884 -> 885 ;
886 [label="gini = 0.007\nsamples = 299\nvalue = [298, 1]"] ;
885 -> 886 ;
887 [label="gini = 0.013\nsamples = 158\nvalue = [157, 1]"] ;
885 -> 887 ;
888 [label="X[1] <= 2.665\ngini = 0.005\nsamples = 363\nvalue = [362, 1]"] ;
884 -> 888 ;
889 [label="gini = 0.0\nsamples = 145\nvalue = [145, 0]"] ;
888 -> 889 ;
890 [label="gini = 0.009\nsamples = 218\nvalue = [217, 1]"] ;
888 -> 890 ;
891 [label="gini = 0.0\nsamples = 256\nvalue = [256, 0]"] ;
877 -> 891 ;
892 [label="X[1] <= 2.665\ngini = 0.011\nsamples = 1407\nvalue = [1399, 8]"] ;
876 -> 892 ;
893 [label="X[1] <= 2.655\ngini = 0.01\nsamples = 973\nvalue = [968, 5]"] ;
892 -> 893 ;
894 [label="X[1] <= 2.645\ngini = 0.012\nsamples = 795\nvalue = [790, 5]"] ;
893 -> 894 ;
895 [label="X[1] <= 2.635\ngini = 0.01\nsamples = 618\nvalue = [615, 3]"] ;
894 -> 895 ;
896 [label="X[0] <= 3.5\ngini = 0.013\nsamples = 448\nvalue = [445, 3]"] ;
895 -> 896 ;
897 [label="X[1] <= 2.615\ngini = 0.02\nsamples = 198\nvalue = [196, 2]"] ;
896 -> 897 ;
898 [label="gini = 0.0\nsamples = 75\nvalue = [75, 0]"] ;
897 -> 898 ;
899 [label="X[1] <= 2.625\ngini = 0.032\nsamples = 123\nvalue = [121, 2]"] ;
897 -> 899 ;
900 [label="gini = 0.028\nsamples = 71\nvalue = [70, 1]"] ;
899 -> 900 ;
901 [label="gini = 0.038\nsamples = 52\nvalue = [51, 1]"] ;
899 -> 901 ;
902 [label="X[1] <= 2.615\ngini = 0.008\nsamples = 250\nvalue = [249, 1]"] ;
896 -> 902 ;
903 [label="X[0] <= 4.5\ngini = 0.024\nsamples = 84\nvalue = [83, 1]"] ;
902 -> 903 ;
904 [label="gini = 0.0\nsamples = 35\nvalue = [35, 0]"] ;
903 -> 904 ;
905 [label="gini = 0.04\nsamples = 49\nvalue = [48, 1]"] ;
903 -> 905 ;
906 [label="gini = 0.0\nsamples = 166\nvalue = [166, 0]"] ;
902 -> 906 ;
907 [label="gini = 0.0\nsamples = 170\nvalue = [170, 0]"] ;
895 -> 907 ;
908 [label="X[0] <= 4.5\ngini = 0.022\nsamples = 177\nvalue = [175, 2]"] ;
894 -> 908 ;
909 [label="X[0] <= 3.5\ngini = 0.035\nsamples = 112\nvalue = [110, 2]"] ;
908 -> 909 ;
910 [label="gini = 0.033\nsamples = 59\nvalue = [58, 1]"] ;
909 -> 910 ;
911 [label="gini = 0.037\nsamples = 53\nvalue = [52, 1]"] ;
909 -> 911 ;
912 [label="gini = 0.0\nsamples = 65\nvalue = [65, 0]"] ;
908 -> 912 ;
913 [label="gini = 0.0\nsamples = 178\nvalue = [178, 0]"] ;
893 -> 913 ;
914 [label="X[0] <= 3.5\ngini = 0.014\nsamples = 434\nvalue = [431, 3]"] ;
892 -> 914 ;
915 [label="gini = 0.0\nsamples = 190\nvalue = [190, 0]"] ;
914 -> 915 ;
916 [label="X[1] <= 2.675\ngini = 0.024\nsamples = 244\nvalue = [241, 3]"] ;
914 -> 916 ;
917 [label="X[0] <= 4.5\ngini = 0.034\nsamples = 116\nvalue = [114, 2]"] ;
916 -> 917 ;
918 [label="gini = 0.029\nsamples = 68\nvalue = [67, 1]"] ;
917 -> 918 ;
919 [label="gini = 0.041\nsamples = 48\nvalue = [47, 1]"] ;
917 -> 919 ;
920 [label="X[0] <= 4.5\ngini = 0.016\nsamples = 128\nvalue = [127, 1]"] ;
916 -> 920 ;
921 [label="X[1] <= 2.685\ngini = 0.026\nsamples = 75\nvalue = [74, 1]"] ;
920 -> 921 ;
922 [label="gini = 0.0\nsamples = 24\nvalue = [24, 0]"] ;
921 -> 922 ;
923 [label="gini = 0.038\nsamples = 51\nvalue = [50, 1]"] ;
921 -> 923 ;
924 [label="gini = 0.0\nsamples = 53\nvalue = [53, 0]"] ;
920 -> 924 ;
925 [label="X[1] <= 2.665\ngini = 0.022\nsamples = 1070\nvalue = [1058, 12]"] ;
831 -> 925 ;
926 [label="X[1] <= 2.555\ngini = 0.02\nsamples = 908\nvalue = [899, 9]"] ;
925 -> 926 ;
927 [label="X[1] <= 2.535\ngini = 0.031\nsamples = 252\nvalue = [248, 4]"] ;
926 -> 927 ;
928 [label="X[0] <= 6.5\ngini = 0.014\nsamples = 147\nvalue = [146, 1]"] ;
927 -> 928 ;
929 [label="X[1] <= 2.515\ngini = 0.027\nsamples = 72\nvalue = [71, 1]"] ;
928 -> 929 ;
930 [label="gini = 0.048\nsamples = 41\nvalue = [40, 1]"] ;
929 -> 930 ;
931 [label="gini = 0.0\nsamples = 31\nvalue = [31, 0]"] ;
929 -> 931 ;
932 [label="gini = 0.0\nsamples = 75\nvalue = [75, 0]"] ;
928 -> 932 ;
933 [label="X[0] <= 6.5\ngini = 0.056\nsamples = 105\nvalue = [102, 3]"] ;
927 -> 933 ;
934 [label="X[1] <= 2.545\ngini = 0.037\nsamples = 53\nvalue = [52, 1]"] ;
933 -> 934 ;
935 [label="gini = 0.054\nsamples = 36\nvalue = [35, 1]"] ;
934 -> 935 ;
936 [label="gini = 0.0\nsamples = 17\nvalue = [17, 0]"] ;
934 -> 936 ;
937 [label="X[1] <= 2.545\ngini = 0.074\nsamples = 52\nvalue = [50, 2]"] ;
933 -> 937 ;
938 [label="gini = 0.067\nsamples = 29\nvalue = [28, 1]"] ;
937 -> 938 ;
939 [label="gini = 0.083\nsamples = 23\nvalue = [22, 1]"] ;
937 -> 939 ;
940 [label="X[1] <= 2.595\ngini = 0.015\nsamples = 656\nvalue = [651, 5]"] ;
926 -> 940 ;
941 [label="gini = 0.0\nsamples = 173\nvalue = [173, 0]"] ;
940 -> 941 ;
942 [label="X[1] <= 2.615\ngini = 0.02\nsamples = 483\nvalue = [478, 5]"] ;
940 -> 942 ;
943 [label="X[0] <= 6.5\ngini = 0.033\nsamples = 178\nvalue = [175, 3]"] ;
942 -> 943 ;
944 [label="X[1] <= 2.605\ngini = 0.042\nsamples = 94\nvalue = [92, 2]"] ;
943 -> 944 ;
945 [label="gini = 0.067\nsamples = 58\nvalue = [56, 2]"] ;
944 -> 945 ;
946 [label="gini = 0.0\nsamples = 36\nvalue = [36, 0]"] ;
944 -> 946 ;
947 [label="X[1] <= 2.605\ngini = 0.024\nsamples = 84\nvalue = [83, 1]"] ;
943 -> 947 ;
948 [label="gini = 0.0\nsamples = 54\nvalue = [54, 0]"] ;
947 -> 948 ;
949 [label="gini = 0.064\nsamples = 30\nvalue = [29, 1]"] ;
947 -> 949 ;
950 [label="X[1] <= 2.635\ngini = 0.013\nsamples = 305\nvalue = [303, 2]"] ;
942 -> 950 ;
951 [label="gini = 0.0\nsamples = 95\nvalue = [95, 0]"] ;
950 -> 951 ;
952 [label="X[1] <= 2.655\ngini = 0.019\nsamples = 210\nvalue = [208, 2]"] ;
950 -> 952 ;
953 [label="X[1] <= 2.645\ngini = 0.025\nsamples = 159\nvalue = [157, 2]"] ;
952 -> 953 ;
954 [label="X[0] <= 6.5\ngini = 0.02\nsamples = 100\nvalue = [99, 1]"] ;
953 -> 954 ;
955 [label="gini = 0.036\nsamples = 55\nvalue = [54, 1]"] ;
954 -> 955 ;
956 [label="gini = 0.0\nsamples = 45\nvalue = [45, 0]"] ;
954 -> 956 ;
957 [label="X[0] <= 6.5\ngini = 0.033\nsamples = 59\nvalue = [58, 1]"] ;
953 -> 957 ;
958 [label="gini = 0.0\nsamples = 29\nvalue = [29, 0]"] ;
957 -> 958 ;
959 [label="gini = 0.064\nsamples = 30\nvalue = [29, 1]"] ;
957 -> 959 ;
960 [label="gini = 0.0\nsamples = 51\nvalue = [51, 0]"] ;
952 -> 960 ;
961 [label="X[0] <= 6.5\ngini = 0.036\nsamples = 162\nvalue = [159, 3]"] ;
925 -> 961 ;
962 [label="X[1] <= 2.685\ngini = 0.027\nsamples = 74\nvalue = [73, 1]"] ;
961 -> 962 ;
963 [label="gini = 0.0\nsamples = 50\nvalue = [50, 0]"] ;
962 -> 963 ;
964 [label="gini = 0.08\nsamples = 24\nvalue = [23, 1]"] ;
962 -> 964 ;
965 [label="X[1] <= 2.685\ngini = 0.044\nsamples = 88\nvalue = [86, 2]"] ;
961 -> 965 ;
966 [label="X[1] <= 2.675\ngini = 0.065\nsamples = 59\nvalue = [57, 2]"] ;
965 -> 966 ;
967 [label="gini = 0.062\nsamples = 31\nvalue = [30, 1]"] ;
966 -> 967 ;
968 [label="gini = 0.069\nsamples = 28\nvalue = [27, 1]"] ;
966 -> 968 ;
969 [label="gini = 0.0\nsamples = 29\nvalue = [29, 0]"] ;
965 -> 969 ;
970 [label="X[0] <= 5.5\ngini = 0.028\nsamples = 852\nvalue = [840, 12]"] ;
396 -> 970 ;
971 [label="X[0] <= 2.5\ngini = 0.011\nsamples = 713\nvalue = [709, 4]"] ;
970 -> 971 ;
972 [label="gini = 0.0\nsamples = 366\nvalue = [366, 0]"] ;
971 -> 972 ;
973 [label="X[0] <= 4.5\ngini = 0.023\nsamples = 347\nvalue = [343, 4]"] ;
971 -> 973 ;
974 [label="X[0] <= 3.5\ngini = 0.029\nsamples = 271\nvalue = [267, 4]"] ;
973 -> 974 ;
975 [label="gini = 0.022\nsamples = 179\nvalue = [177, 2]"] ;
974 -> 975 ;
976 [label="gini = 0.043\nsamples = 92\nvalue = [90, 2]"] ;
974 -> 976 ;
977 [label="gini = 0.0\nsamples = 76\nvalue = [76, 0]"] ;
973 -> 977 ;
978 [label="X[0] <= 6.5\ngini = 0.108\nsamples = 139\nvalue = [131, 8]"] ;
970 -> 978 ;
979 [label="gini = 0.111\nsamples = 68\nvalue = [64, 4]"] ;
978 -> 979 ;
980 [label="gini = 0.106\nsamples = 71\nvalue = [67, 4]"] ;
978 -> 980 ;
981 [label="X[1] <= 2.505\ngini = 0.026\nsamples = 9516\nvalue = [9391, 125]"] ;
395 -> 981 ;
982 [label="X[0] <= 10.5\ngini = 0.016\nsamples = 6619\nvalue = [6565, 54]"] ;
981 -> 982 ;
983 [label="X[1] <= 1.055\ngini = 0.013\nsamples = 3964\nvalue = [3938, 26]"] ;
982 -> 983 ;
984 [label="gini = 0.0\nsamples = 535\nvalue = [535, 0]"] ;
983 -> 984 ;
985 [label="X[1] <= 1.085\ngini = 0.015\nsamples = 3429\nvalue = [3403, 26]"] ;
983 -> 985 ;
986 [label="X[1] <= 1.075\ngini = 0.137\nsamples = 27\nvalue = [25, 2]"] ;
985 -> 986 ;
987 [label="X[1] <= 1.065\ngini = 0.087\nsamples = 22\nvalue = [21, 1]"] ;
986 -> 987 ;
988 [label="X[0] <= 9.5\ngini = 0.153\nsamples = 12\nvalue = [11, 1]"] ;
987 -> 988 ;
989 [label="X[0] <= 8.5\ngini = 0.198\nsamples = 9\nvalue = [8, 1]"] ;
988 -> 989 ;
990 [label="gini = 0.0\nsamples = 2\nvalue = [2, 0]"] ;
989 -> 990 ;
991 [label="gini = 0.245\nsamples = 7\nvalue = [6, 1]"] ;
989 -> 991 ;
992 [label="gini = 0.0\nsamples = 3\nvalue = [3, 0]"] ;
988 -> 992 ;
993 [label="gini = 0.0\nsamples = 10\nvalue = [10, 0]"] ;
987 -> 993 ;
994 [label="X[0] <= 9.5\ngini = 0.32\nsamples = 5\nvalue = [4, 1]"] ;
986 -> 994 ;
995 [label="X[0] <= 8.5\ngini = 0.444\nsamples = 3\nvalue = [2, 1]"] ;
994 -> 995 ;
996 [label="gini = 0.0\nsamples = 1\nvalue = [1, 0]"] ;
995 -> 996 ;
997 [label="gini = 0.5\nsamples = 2\nvalue = [1, 1]"] ;
995 -> 997 ;
998 [label="gini = 0.0\nsamples = 2\nvalue = [2, 0]"] ;
994 -> 998 ;
999 [label="X[1] <= 1.695\ngini = 0.014\nsamples = 3402\nvalue = [3378, 24]"] ;
985 -> 999 ;
1000 [label="X[1] <= 1.135\ngini = 0.004\nsamples = 555\nvalue = [554, 1]"] ;
999 -> 1000 ;
1001 [label="X[0] <= 8.5\ngini = 0.044\nsamples = 44\nvalue = [43, 1]"] ;
1000 -> 1001 ;
1002 [label="X[1] <= 1.12\ngini = 0.198\nsamples = 9\nvalue = [8, 1]"] ;
1001 -> 1002 ;
1003 [label="gini = 0.0\nsamples = 4\nvalue = [4, 0]"] ;
1002 -> 1003 ;
1004 [label="gini = 0.32\nsamples = 5\nvalue = [4, 1]"] ;
1002 -> 1004 ;
1005 [label="gini = 0.0\nsamples = 35\nvalue = [35, 0]"] ;
1001 -> 1005 ;
1006 [label="gini = 0.0\nsamples = 511\nvalue = [511, 0]"] ;
1000 -> 1006 ;
1007 [label="X[1] <= 2.185\ngini = 0.016\nsamples = 2847\nvalue = [2824, 23]"] ;
999 -> 1007 ;
1008 [label="X[1] <= 2.175\ngini = 0.024\nsamples = 1166\nvalue = [1152, 14]"] ;
1007 -> 1008 ;
1009 [label="X[0] <= 9.5\ngini = 0.021\nsamples = 1059\nvalue = [1048, 11]"] ;
1008 -> 1009 ;
1010 [label="X[0] <= 8.5\ngini = 0.014\nsamples = 700\nvalue = [695, 5]"] ;
1009 -> 1010 ;
1011 [label="X[1] <= 1.875\ngini = 0.028\nsamples = 352\nvalue = [347, 5]"] ;
1010 -> 1011 ;
1012 [label="gini = 0.0\nsamples = 124\nvalue = [124, 0]"] ;
1011 -> 1012 ;
1013 [label="X[1] <= 1.905\ngini = 0.043\nsamples = 228\nvalue = [223, 5]"] ;
1011 -> 1013 ;
1014 [label="X[1] <= 1.895\ngini = 0.32\nsamples = 10\nvalue = [8, 2]"] ;
1013 -> 1014 ;
1015 [label="X[1] <= 1.885\ngini = 0.219\nsamples = 8\nvalue = [7, 1]"] ;
1014 -> 1015 ;
1016 [label="gini = 0.32\nsamples = 5\nvalue = [4, 1]"] ;
1015 -> 1016 ;
1017 [label="gini = 0.0\nsamples = 3\nvalue = [3, 0]"] ;
1015 -> 1017 ;
1018 [label="gini = 0.5\nsamples = 2\nvalue = [1, 1]"] ;
1014 -> 1018 ;
1019 [label="X[1] <= 2.055\ngini = 0.027\nsamples = 218\nvalue = [215, 3]"] ;
1013 -> 1019 ;
1020 [label="X[1] <= 2.025\ngini = 0.054\nsamples = 108\nvalue = [105, 3]"] ;
1019 -> 1020 ;
1021 [label="X[1] <= 1.955\ngini = 0.025\nsamples = 78\nvalue = [77, 1]"] ;
1020 -> 1021 ;
1022 [label="X[1] <= 1.945\ngini = 0.064\nsamples = 30\nvalue = [29, 1]"] ;
1021 -> 1022 ;
1023 [label="gini = 0.0\nsamples = 22\nvalue = [22, 0]"] ;
1022 -> 1023 ;
1024 [label="gini = 0.219\nsamples = 8\nvalue = [7, 1]"] ;
1022 -> 1024 ;
1025 [label="gini = 0.0\nsamples = 48\nvalue = [48, 0]"] ;
1021 -> 1025 ;
1026 [label="X[1] <= 2.035\ngini = 0.124\nsamples = 30\nvalue = [28, 2]"] ;
1020 -> 1026 ;
1027 [label="gini = 0.245\nsamples = 7\nvalue = [6, 1]"] ;
1026 -> 1027 ;
1028 [label="X[1] <= 2.045\ngini = 0.083\nsamples = 23\nvalue = [22, 1]"] ;
1026 -> 1028 ;
1029 [label="gini = 0.0\nsamples = 13\nvalue = [13, 0]"] ;
1028 -> 1029 ;
1030 [label="gini = 0.18\nsamples = 10\nvalue = [9, 1]"] ;
1028 -> 1030 ;
1031 [label="gini = 0.0\nsamples = 110\nvalue = [110, 0]"] ;
1019 -> 1031 ;
1032 [label="gini = 0.0\nsamples = 348\nvalue = [348, 0]"] ;
1010 -> 1032 ;
1033 [label="X[1] <= 1.705\ngini = 0.033\nsamples = 359\nvalue = [353, 6]"] ;
1009 -> 1033 ;
1034 [label="gini = 0.32\nsamples = 5\nvalue = [4, 1]"] ;
1033 -> 1034 ;
1035 [label="X[1] <= 1.735\ngini = 0.028\nsamples = 354\nvalue = [349, 5]"] ;
1033 -> 1035 ;
1036 [label="X[1] <= 1.725\ngini = 0.087\nsamples = 22\nvalue = [21, 1]"] ;
1035 -> 1036 ;
1037 [label="gini = 0.0\nsamples = 6\nvalue = [6, 0]"] ;
1036 -> 1037 ;
1038 [label="gini = 0.117\nsamples = 16\nvalue = [15, 1]"] ;
1036 -> 1038 ;
1039 [label="X[1] <= 2.095\ngini = 0.024\nsamples = 332\nvalue = [328, 4]"] ;
1035 -> 1039 ;
1040 [label="X[1] <= 1.895\ngini = 0.016\nsamples = 255\nvalue = [253, 2]"] ;
1039 -> 1040 ;
1041 [label="X[1] <= 1.885\ngini = 0.034\nsamples = 115\nvalue = [113, 2]"] ;
1040 -> 1041 ;
1042 [label="X[1] <= 1.855\ngini = 0.018\nsamples = 108\nvalue = [107, 1]"] ;
1041 -> 1042 ;
1043 [label="gini = 0.0\nsamples = 85\nvalue = [85, 0]"] ;
1042 -> 1043 ;
1044 [label="X[1] <= 1.865\ngini = 0.083\nsamples = 23\nvalue = [22, 1]"] ;
1042 -> 1044 ;
1045 [label="gini = 0.278\nsamples = 6\nvalue = [5, 1]"] ;
1044 -> 1045 ;
1046 [label="gini = 0.0\nsamples = 17\nvalue = [17, 0]"] ;
1044 -> 1046 ;
1047 [label="gini = 0.245\nsamples = 7\nvalue = [6, 1]"] ;
1041 -> 1047 ;
1048 [label="gini = 0.0\nsamples = 140\nvalue = [140, 0]"] ;
1040 -> 1048 ;
1049 [label="X[1] <= 2.105\ngini = 0.051\nsamples = 77\nvalue = [75, 2]"] ;
1039 -> 1049 ;
1050 [label="gini = 0.124\nsamples = 15\nvalue = [14, 1]"] ;
1049 -> 1050 ;
1051 [label="X[1] <= 2.155\ngini = 0.032\nsamples = 62\nvalue = [61, 1]"] ;
1049 -> 1051 ;
1052 [label="gini = 0.0\nsamples = 27\nvalue = [27, 0]"] ;
1051 -> 1052 ;
1053 [label="X[1] <= 2.165\ngini = 0.056\nsamples = 35\nvalue = [34, 1]"] ;
1051 -> 1053 ;
1054 [label="gini = 0.1\nsamples = 19\nvalue = [18, 1]"] ;
1053 -> 1054 ;
1055 [label="gini = 0.0\nsamples = 16\nvalue = [16, 0]"] ;
1053 -> 1055 ;
1056 [label="X[0] <= 9.5\ngini = 0.055\nsamples = 107\nvalue = [104, 3]"] ;
1008 -> 1056 ;
1057 [label="X[0] <= 8.5\ngini = 0.081\nsamples = 71\nvalue = [68, 3]"] ;
1056 -> 1057 ;
1058 [label="gini = 0.044\nsamples = 44\nvalue = [43, 1]"] ;
1057 -> 1058 ;
1059 [label="gini = 0.137\nsamples = 27\nvalue = [25, 2]"] ;
1057 -> 1059 ;
1060 [label="gini = 0.0\nsamples = 36\nvalue = [36, 0]"] ;
1056 -> 1060 ;
1061 [label="X[1] <= 2.485\ngini = 0.011\nsamples = 1681\nvalue = [1672, 9]"] ;
1007 -> 1061 ;
1062 [label="X[0] <= 8.5\ngini = 0.008\nsamples = 1438\nvalue = [1432, 6]"] ;
1061 -> 1062 ;
1063 [label="X[1] <= 2.325\ngini = 0.016\nsamples = 505\nvalue = [501, 4]"] ;
1062 -> 1063 ;
1064 [label="X[1] <= 2.305\ngini = 0.038\nsamples = 206\nvalue = [202, 4]"] ;
1063 -> 1064 ;
1065 [label="X[1] <= 2.255\ngini = 0.023\nsamples = 174\nvalue = [172, 2]"] ;
1064 -> 1065 ;
1066 [label="X[1] <= 2.245\ngini = 0.033\nsamples = 118\nvalue = [116, 2]"] ;
1065 -> 1066 ;
1067 [label="X[1] <= 2.215\ngini = 0.02\nsamples = 99\nvalue = [98, 1]"] ;
1066 -> 1067 ;
1068 [label="X[1] <= 2.205\ngini = 0.032\nsamples = 62\nvalue = [61, 1]"] ;
1067 -> 1068 ;
1069 [label="gini = 0.0\nsamples = 31\nvalue = [31, 0]"] ;
1068 -> 1069 ;
1070 [label="gini = 0.062\nsamples = 31\nvalue = [30, 1]"] ;
1068 -> 1070 ;
1071 [label="gini = 0.0\nsamples = 37\nvalue = [37, 0]"] ;
1067 -> 1071 ;
1072 [label="gini = 0.1\nsamples = 19\nvalue = [18, 1]"] ;
1066 -> 1072 ;
1073 [label="gini = 0.0\nsamples = 56\nvalue = [56, 0]"] ;
1065 -> 1073 ;
1074 [label="X[1] <= 2.315\ngini = 0.117\nsamples = 32\nvalue = [30, 2]"] ;
1064 -> 1074 ;
1075 [label="gini = 0.105\nsamples = 18\nvalue = [17, 1]"] ;
1074 -> 1075 ;
1076 [label="gini = 0.133\nsamples = 14\nvalue = [13, 1]"] ;
1074 -> 1076 ;
1077 [label="gini = 0.0\nsamples = 299\nvalue = [299, 0]"] ;
1063 -> 1077 ;
1078 [label="X[1] <= 2.455\ngini = 0.004\nsamples = 933\nvalue = [931, 2]"] ;
1062 -> 1078 ;
1079 [label="X[1] <= 2.355\ngini = 0.002\nsamples = 821\nvalue = [820, 1]"] ;
1078 -> 1079 ;
1080 [label="gini = 0.0\nsamples = 456\nvalue = [456, 0]"] ;
1079 -> 1080 ;
1081 [label="X[1] <= 2.365\ngini = 0.005\nsamples = 365\nvalue = [364, 1]"] ;
1079 -> 1081 ;
1082 [label="X[0] <= 9.5\ngini = 0.029\nsamples = 68\nvalue = [67, 1]"] ;
1081 -> 1082 ;
1083 [label="gini = 0.051\nsamples = 38\nvalue = [37, 1]"] ;
1082 -> 1083 ;
1084 [label="gini = 0.0\nsamples = 30\nvalue = [30, 0]"] ;
1082 -> 1084 ;
1085 [label="gini = 0.0\nsamples = 297\nvalue = [297, 0]"] ;
1081 -> 1085 ;
1086 [label="X[1] <= 2.465\ngini = 0.018\nsamples = 112\nvalue = [111, 1]"] ;
1078 -> 1086 ;
1087 [label="X[0] <= 9.5\ngini = 0.045\nsamples = 43\nvalue = [42, 1]"] ;
1086 -> 1087 ;
1088 [label="gini = 0.0\nsamples = 20\nvalue = [20, 0]"] ;
1087 -> 1088 ;
1089 [label="gini = 0.083\nsamples = 23\nvalue = [22, 1]"] ;
1087 -> 1089 ;
1090 [label="gini = 0.0\nsamples = 69\nvalue = [69, 0]"] ;
1086 -> 1090 ;
1091 [label="X[1] <= 2.495\ngini = 0.024\nsamples = 243\nvalue = [240, 3]"] ;
1061 -> 1091 ;
1092 [label="X[0] <= 9.5\ngini = 0.035\nsamples = 166\nvalue = [163, 3]"] ;
1091 -> 1092 ;
1093 [label="X[0] <= 8.5\ngini = 0.056\nsamples = 104\nvalue = [101, 3]"] ;
1092 -> 1093 ;
1094 [label="gini = 0.04\nsamples = 49\nvalue = [48, 1]"] ;
1093 -> 1094 ;
1095 [label="gini = 0.07\nsamples = 55\nvalue = [53, 2]"] ;
1093 -> 1095 ;
1096 [label="gini = 0.0\nsamples = 62\nvalue = [62, 0]"] ;
1092 -> 1096 ;
1097 [label="gini = 0.0\nsamples = 77\nvalue = [77, 0]"] ;
1091 -> 1097 ;
1098 [label="X[1] <= 2.445\ngini = 0.021\nsamples = 2655\nvalue = [2627, 28]"] ;
982 -> 1098 ;
1099 [label="X[1] <= 2.435\ngini = 0.024\nsamples = 2315\nvalue = [2287, 28]"] ;
1098 -> 1099 ;
1100 [label="X[1] <= 0.705\ngini = 0.022\nsamples = 2297\nvalue = [2271, 26]"] ;
1099 -> 1100 ;
1101 [label="X[1] <= 0.695\ngini = 0.064\nsamples = 60\nvalue = [58, 2]"] ;
1100 -> 1101 ;
1102 [label="gini = 0.0\nsamples = 50\nvalue = [50, 0]"] ;
1101 -> 1102 ;
1103 [label="X[0] <= 11.5\ngini = 0.32\nsamples = 10\nvalue = [8, 2]"] ;
1101 -> 1103 ;
1104 [label="gini = 0.0\nsamples = 2\nvalue = [2, 0]"] ;
1103 -> 1104 ;
1105 [label="gini = 0.375\nsamples = 8\nvalue = [6, 2]"] ;
1103 -> 1105 ;
1106 [label="X[0] <= 11.5\ngini = 0.021\nsamples = 2237\nvalue = [2213, 24]"] ;
1100 -> 1106 ;
1107 [label="X[1] <= 2.155\ngini = 0.03\nsamples = 1123\nvalue = [1106, 17]"] ;
1106 -> 1107 ;
1108 [label="X[1] <= 1.135\ngini = 0.018\nsamples = 669\nvalue = [663, 6]"] ;
1107 -> 1108 ;
1109 [label="gini = 0.0\nsamples = 152\nvalue = [152, 0]"] ;
1108 -> 1109 ;
1110 [label="X[1] <= 1.15\ngini = 0.023\nsamples = 517\nvalue = [511, 6]"] ;
1108 -> 1110 ;
1111 [label="gini = 0.5\nsamples = 2\nvalue = [1, 1]"] ;
1110 -> 1111 ;
1112 [label="X[1] <= 1.505\ngini = 0.019\nsamples = 515\nvalue = [510, 5]"] ;
1110 -> 1112 ;
1113 [label="X[1] <= 1.495\ngini = 0.041\nsamples = 143\nvalue = [140, 3]"] ;
1112 -> 1113 ;
1114 [label="X[1] <= 1.375\ngini = 0.029\nsamples = 135\nvalue = [133, 2]"] ;
1113 -> 1114 ;
1115 [label="gini = 0.0\nsamples = 76\nvalue = [76, 0]"] ;
1114 -> 1115 ;
1116 [label="X[1] <= 1.395\ngini = 0.065\nsamples = 59\nvalue = [57, 2]"] ;
1114 -> 1116 ;
1117 [label="X[1] <= 1.385\ngini = 0.375\nsamples = 8\nvalue = [6, 2]"] ;
1116 -> 1117 ;
1118 [label="gini = 0.278\nsamples = 6\nvalue = [5, 1]"] ;
1117 -> 1118 ;
1119 [label="gini = 0.5\nsamples = 2\nvalue = [1, 1]"] ;
1117 -> 1119 ;
1120 [label="gini = 0.0\nsamples = 51\nvalue = [51, 0]"] ;
1116 -> 1120 ;
1121 [label="gini = 0.219\nsamples = 8\nvalue = [7, 1]"] ;
1113 -> 1121 ;
1122 [label="X[1] <= 1.785\ngini = 0.011\nsamples = 372\nvalue = [370, 2]"] ;
1112 -> 1122 ;
1123 [label="gini = 0.0\nsamples = 122\nvalue = [122, 0]"] ;
1122 -> 1123 ;
1124 [label="X[1] <= 1.795\ngini = 0.016\nsamples = 250\nvalue = [248, 2]"] ;
1122 -> 1124 ;
1125 [label="gini = 0.198\nsamples = 9\nvalue = [8, 1]"] ;
1124 -> 1125 ;
1126 [label="X[1] <= 2.015\ngini = 0.008\nsamples = 241\nvalue = [240, 1]"] ;
1124 -> 1126 ;
1127 [label="gini = 0.0\nsamples = 121\nvalue = [121, 0]"] ;
1126 -> 1127 ;
1128 [label="X[1] <= 2.025\ngini = 0.017\nsamples = 120\nvalue = [119, 1]"] ;
1126 -> 1128 ;
1129 [label="gini = 0.133\nsamples = 14\nvalue = [13, 1]"] ;
1128 -> 1129 ;
1130 [label="gini = 0.0\nsamples = 106\nvalue = [106, 0]"] ;
1128 -> 1130 ;
1131 [label="X[1] <= 2.165\ngini = 0.047\nsamples = 454\nvalue = [443, 11]"] ;
1107 -> 1131 ;
1132 [label="gini = 0.43\nsamples = 16\nvalue = [11, 5]"] ;
1131 -> 1132 ;
1133 [label="X[1] <= 2.235\ngini = 0.027\nsamples = 438\nvalue = [432, 6]"] ;
1131 -> 1133 ;
1134 [label="gini = 0.0\nsamples = 110\nvalue = [110, 0]"] ;
1133 -> 1134 ;
1135 [label="X[1] <= 2.265\ngini = 0.036\nsamples = 328\nvalue = [322, 6]"] ;
1133 -> 1135 ;
1136 [label="X[1] <= 2.255\ngini = 0.064\nsamples = 91\nvalue = [88, 3]"] ;
1135 -> 1136 ;
1137 [label="X[1] <= 2.245\ngini = 0.043\nsamples = 46\nvalue = [45, 1]"] ;
1136 -> 1137 ;
1138 [label="gini = 0.061\nsamples = 32\nvalue = [31, 1]"] ;
1137 -> 1138 ;
1139 [label="gini = 0.0\nsamples = 14\nvalue = [14, 0]"] ;
1137 -> 1139 ;
1140 [label="gini = 0.085\nsamples = 45\nvalue = [43, 2]"] ;
1136 -> 1140 ;
1141 [label="X[1] <= 2.335\ngini = 0.025\nsamples = 237\nvalue = [234, 3]"] ;
1135 -> 1141 ;
1142 [label="gini = 0.0\nsamples = 81\nvalue = [81, 0]"] ;
1141 -> 1142 ;
1143 [label="X[1] <= 2.345\ngini = 0.038\nsamples = 156\nvalue = [153, 3]"] ;
1141 -> 1143 ;
1144 [label="gini = 0.165\nsamples = 11\nvalue = [10, 1]"] ;
1143 -> 1144 ;
1145 [label="X[1] <= 2.395\ngini = 0.027\nsamples = 145\nvalue = [143, 2]"] ;
1143 -> 1145 ;
1146 [label="X[1] <= 2.385\ngini = 0.043\nsamples = 92\nvalue = [90, 2]"] ;
1145 -> 1146 ;
1147 [label="X[1] <= 2.365\ngini = 0.026\nsamples = 76\nvalue = [75, 1]"] ;
1146 -> 1147 ;
1148 [label="X[1] <= 2.355\ngini = 0.046\nsamples = 42\nvalue = [41, 1]"] ;
1147 -> 1148 ;
1149 [label="gini = 0.0\nsamples = 18\nvalue = [18, 0]"] ;
1148 -> 1149 ;
1150 [label="gini = 0.08\nsamples = 24\nvalue = [23, 1]"] ;
1148 -> 1150 ;
1151 [label="gini = 0.0\nsamples = 34\nvalue = [34, 0]"] ;
1147 -> 1151 ;
1152 [label="gini = 0.117\nsamples = 16\nvalue = [15, 1]"] ;
1146 -> 1152 ;
1153 [label="gini = 0.0\nsamples = 53\nvalue = [53, 0]"] ;
1145 -> 1153 ;
1154 [label="X[1] <= 1.205\ngini = 0.012\nsamples = 1114\nvalue = [1107, 7]"] ;
1106 -> 1154 ;
1155 [label="X[1] <= 0.905\ngini = 0.035\nsamples = 222\nvalue = [218, 4]"] ;
1154 -> 1155 ;
1156 [label="gini = 0.0\nsamples = 74\nvalue = [74, 0]"] ;
1155 -> 1156 ;
1157 [label="X[1] <= 0.975\ngini = 0.053\nsamples = 148\nvalue = [144, 4]"] ;
1155 -> 1157 ;
1158 [label="X[1] <= 0.96\ngini = 0.089\nsamples = 43\nvalue = [41, 2]"] ;
1157 -> 1158 ;
1159 [label="X[1] <= 0.915\ngini = 0.057\nsamples = 34\nvalue = [33, 1]"] ;
1158 -> 1159 ;
1160 [label="gini = 0.111\nsamples = 17\nvalue = [16, 1]"] ;
1159 -> 1160 ;
1161 [label="gini = 0.0\nsamples = 17\nvalue = [17, 0]"] ;
1159 -> 1161 ;
1162 [label="gini = 0.198\nsamples = 9\nvalue = [8, 1]"] ;
1158 -> 1162 ;
1163 [label="X[1] <= 1.195\ngini = 0.037\nsamples = 105\nvalue = [103, 2]"] ;
1157 -> 1163 ;
1164 [label="X[1] <= 1.055\ngini = 0.025\nsamples = 80\nvalue = [79, 1]"] ;
1163 -> 1164 ;
1165 [label="X[1] <= 1.045\ngini = 0.045\nsamples = 43\nvalue = [42, 1]"] ;
1164 -> 1165 ;
1166 [label="gini = 0.0\nsamples = 25\nvalue = [25, 0]"] ;
1165 -> 1166 ;
1167 [label="gini = 0.105\nsamples = 18\nvalue = [17, 1]"] ;
1165 -> 1167 ;
1168 [label="gini = 0.0\nsamples = 37\nvalue = [37, 0]"] ;
1164 -> 1168 ;
1169 [label="gini = 0.077\nsamples = 25\nvalue = [24, 1]"] ;
1163 -> 1169 ;
1170 [label="X[1] <= 2.155\ngini = 0.007\nsamples = 892\nvalue = [889, 3]"] ;
1154 -> 1170 ;
1171 [label="gini = 0.0\nsamples = 463\nvalue = [463, 0]"] ;
1170 -> 1171 ;
1172 [label="X[1] <= 2.165\ngini = 0.014\nsamples = 429\nvalue = [426, 3]"] ;
1170 -> 1172 ;
1173 [label="gini = 0.117\nsamples = 16\nvalue = [15, 1]"] ;
1172 -> 1173 ;
1174 [label="X[1] <= 2.285\ngini = 0.01\nsamples = 413\nvalue = [411, 2]"] ;
1172 -> 1174 ;
1175 [label="X[1] <= 2.265\ngini = 0.02\nsamples = 195\nvalue = [193, 2]"] ;
1174 -> 1175 ;
1176 [label="gini = 0.0\nsamples = 181\nvalue = [181, 0]"] ;
1175 -> 1176 ;
1177 [label="X[1] <= 2.275\ngini = 0.245\nsamples = 14\nvalue = [12, 2]"] ;
1175 -> 1177 ;
1178 [label="gini = 0.278\nsamples = 6\nvalue = [5, 1]"] ;
1177 -> 1178 ;
1179 [label="gini = 0.219\nsamples = 8\nvalue = [7, 1]"] ;
1177 -> 1179 ;
1180 [label="gini = 0.0\nsamples = 218\nvalue = [218, 0]"] ;
1174 -> 1180 ;
1181 [label="X[0] <= 11.5\ngini = 0.198\nsamples = 18\nvalue = [16, 2]"] ;
1099 -> 1181 ;
1182 [label="gini = 0.198\nsamples = 9\nvalue = [8, 1]"] ;
1181 -> 1182 ;
1183 [label="gini = 0.198\nsamples = 9\nvalue = [8, 1]"] ;
1181 -> 1183 ;
1184 [label="gini = 0.0\nsamples = 340\nvalue = [340, 0]"] ;
1098 -> 1184 ;
1185 [label="X[1] <= 2.575\ngini = 0.048\nsamples = 2897\nvalue = [2826, 71]"] ;
981 -> 1185 ;
1186 [label="X[0] <= 8.5\ngini = 0.067\nsamples = 722\nvalue = [697, 25]"] ;
1185 -> 1186 ;
1187 [label="X[1] <= 2.525\ngini = 0.037\nsamples = 157\nvalue = [154, 3]"] ;
1186 -> 1187 ;
1188 [label="gini = 0.0\nsamples = 54\nvalue = [54, 0]"] ;
1187 -> 1188 ;
1189 [label="X[1] <= 2.535\ngini = 0.057\nsamples = 103\nvalue = [100, 3]"] ;
1187 -> 1189 ;
1190 [label="gini = 0.219\nsamples = 16\nvalue = [14, 2]"] ;
1189 -> 1190 ;
1191 [label="X[1] <= 2.565\ngini = 0.023\nsamples = 87\nvalue = [86, 1]"] ;
1189 -> 1191 ;
1192 [label="gini = 0.0\nsamples = 69\nvalue = [69, 0]"] ;
1191 -> 1192 ;
1193 [label="gini = 0.105\nsamples = 18\nvalue = [17, 1]"] ;
1191 -> 1193 ;
1194 [label="X[1] <= 2.525\ngini = 0.075\nsamples = 565\nvalue = [543, 22]"] ;
1186 -> 1194 ;
1195 [label="X[1] <= 2.515\ngini = 0.095\nsamples = 160\nvalue = [152, 8]"] ;
1194 -> 1195 ;
1196 [label="X[0] <= 11.5\ngini = 0.071\nsamples = 136\nvalue = [131, 5]"] ;
1195 -> 1196 ;
1197 [label="X[0] <= 10.5\ngini = 0.039\nsamples = 101\nvalue = [99, 2]"] ;
1196 -> 1197 ;
1198 [label="X[0] <= 9.5\ngini = 0.028\nsamples = 71\nvalue = [70, 1]"] ;
1197 -> 1198 ;
1199 [label="gini = 0.062\nsamples = 31\nvalue = [30, 1]"] ;
1198 -> 1199 ;
1200 [label="gini = 0.0\nsamples = 40\nvalue = [40, 0]"] ;
1198 -> 1200 ;
1201 [label="gini = 0.064\nsamples = 30\nvalue = [29, 1]"] ;
1197 -> 1201 ;
1202 [label="gini = 0.157\nsamples = 35\nvalue = [32, 3]"] ;
1196 -> 1202 ;
1203 [label="X[0] <= 9.5\ngini = 0.219\nsamples = 24\nvalue = [21, 3]"] ;
1195 -> 1203 ;
1204 [label="gini = 0.0\nsamples = 5\nvalue = [5, 0]"] ;
1203 -> 1204 ;
1205 [label="X[0] <= 11.5\ngini = 0.266\nsamples = 19\nvalue = [16, 3]"] ;
1203 -> 1205 ;
1206 [label="X[0] <= 10.5\ngini = 0.305\nsamples = 16\nvalue = [13, 3]"] ;
1205 -> 1206 ;
1207 [label="gini = 0.298\nsamples = 11\nvalue = [9, 2]"] ;
1206 -> 1207 ;
1208 [label="gini = 0.32\nsamples = 5\nvalue = [4, 1]"] ;
1206 -> 1208 ;
1209 [label="gini = 0.0\nsamples = 3\nvalue = [3, 0]"] ;
1205 -> 1209 ;
1210 [label="X[1] <= 2.545\ngini = 0.067\nsamples = 405\nvalue = [391, 14]"] ;
1194 -> 1210 ;
1211 [label="X[0] <= 9.5\ngini = 0.046\nsamples = 169\nvalue = [165, 4]"] ;
1210 -> 1211 ;
1212 [label="X[1] <= 2.535\ngini = 0.07\nsamples = 55\nvalue = [53, 2]"] ;
1211 -> 1212 ;
1213 [label="gini = 0.0\nsamples = 27\nvalue = [27, 0]"] ;
1212 -> 1213 ;
1214 [label="gini = 0.133\nsamples = 28\nvalue = [26, 2]"] ;
1212 -> 1214 ;
1215 [label="X[1] <= 2.535\ngini = 0.034\nsamples = 114\nvalue = [112, 2]"] ;
1211 -> 1215 ;
1216 [label="X[0] <= 10.5\ngini = 0.069\nsamples = 56\nvalue = [54, 2]"] ;
1215 -> 1216 ;
1217 [label="gini = 0.0\nsamples = 15\nvalue = [15, 0]"] ;
1216 -> 1217 ;
1218 [label="X[0] <= 11.5\ngini = 0.093\nsamples = 41\nvalue = [39, 2]"] ;
1216 -> 1218 ;
1219 [label="gini = 0.077\nsamples = 25\nvalue = [24, 1]"] ;
1218 -> 1219 ;
1220 [label="gini = 0.117\nsamples = 16\nvalue = [15, 1]"] ;
1218 -> 1220 ;
1221 [label="gini = 0.0\nsamples = 58\nvalue = [58, 0]"] ;
1215 -> 1221 ;
1222 [label="X[0] <= 10.5\ngini = 0.081\nsamples = 236\nvalue = [226, 10]"] ;
1210 -> 1222 ;
1223 [label="X[1] <= 2.565\ngini = 0.089\nsamples = 128\nvalue = [122, 6]"] ;
1222 -> 1223 ;
1224 [label="X[0] <= 9.5\ngini = 0.066\nsamples = 88\nvalue = [85, 3]"] ;
1223 -> 1224 ;
1225 [label="gini = 0.0\nsamples = 45\nvalue = [45, 0]"] ;
1224 -> 1225 ;
1226 [label="X[1] <= 2.555\ngini = 0.13\nsamples = 43\nvalue = [40, 3]"] ;
1224 -> 1226 ;
1227 [label="gini = 0.204\nsamples = 26\nvalue = [23, 3]"] ;
1226 -> 1227 ;
1228 [label="gini = 0.0\nsamples = 17\nvalue = [17, 0]"] ;
1226 -> 1228 ;
1229 [label="X[0] <= 9.5\ngini = 0.139\nsamples = 40\nvalue = [37, 3]"] ;
1223 -> 1229 ;
1230 [label="gini = 0.191\nsamples = 28\nvalue = [25, 3]"] ;
1229 -> 1230 ;
1231 [label="gini = 0.0\nsamples = 12\nvalue = [12, 0]"] ;
1229 -> 1231 ;
1232 [label="X[1] <= 2.565\ngini = 0.071\nsamples = 108\nvalue = [104, 4]"] ;
